\data\
ngram 1=1488
ngram 2=72601

\1-grams:
-2.09281 <UNK> -5.20716
-2.08838 <w> -5.24737
-5.27819 <s> -7.35666
-5.25803 </s>
-2.28324 a -3.37408
-2.64816 aan -2.6556
-3.56756 aar -1.96178
-4.78073 aavistus -1.93681
-3.18957 ah -1.95802
-3.72628 ahti -2.2129
-2.86682 aika -2.43102
-3.01472 aikaa -3.43504
-4.1786 aikuis -1.89318
-4.08168 aila -1.76836
-4.95686 aiottu -2.002
-5.25803 airisto -1.60583
-3.8264 aisti -1.61782
-3.47243 aita -1.93026
-3.6557 aivo -1.82496
-2.77631 ajan -2.82558
-4.47965 ajanjakso -1.83059
-4.05365 aktiivisuutta -2.14483
-2.87037 al -2.19748
-2.86859 ala -2.15117
-3.89604 aloite -1.93006
-3.84279 aloitte -1.85244
-2.99059 alueella -3.73224
-3.23657 alusta -2.64473
-3.40043 aminen -2.65431
-3.6667 ammatti -2.26041
-4.95686 ammenta -1.51447
-4.1786 ampuma -1.87613
-5.25803 amsterdam -2.3208
-2.41018 an -3.11264
-4.25778 analyytiko -1.40832
-3.45842 and -2.18552
-4.0025 andre -2.13001
-3.58566 anna -2.50485
-3.18221 anne -2.27457
-3.75261 anni -1.83427
-4.65577 anniskelu -1.3319
-3.45842 ano -1.70192
-3.00248 ansa -2.72117
-3.97902 anssi -1.8462
-3.4065 anti -1.71508
-3.75261 apulais -2.0651
-3.02476 ari -1.99149
-3.05093 as -1.90883
-3.54176 aseen -2.53507
-3.63451 asemat -2.6926
-4.30354 asettelu -1.97593
-3.84279 asiakkaista -2.4647
-2.95241 assa -2.55016
-2.94179 asta -2.12354
-3.24072 ava -2.03815
-4.25778 avaruus -1.61401
-3.95674 avaus -1.98526
-3.62429 avo -1.79598
-3.7137 avustus -1.78505
-2.7499 b -2.30382
-2.80291 ba -2.16906
-3.73925 bag -1.46194
-5.25803 bahama -1.50791
-4.65577 baijeri -1.79794
-3.26653 bal -1.73979
-4.0025 baletti -1.56958
-4.08168 balladi -1.59453
-3.09639 bar -2.06166
-3.09639 berg -2.36378
-3.21243 bergin -2.7283
-2.87394 bi -1.89232
-3.28928 bis -1.62707
-4.47965 brass -1.67803
-3.13718 by -1.88592
-3.72628 bäck -1.9254
-2.72756 c -2.53395
-2.99294 ce -1.99593
-2.8904 ch -2.01722
-3.03245 che -1.71251
-2.91336 chi -1.65221
-4.65577 chris -2.11681
-5.25803 christian -2.31149
-4.95686 christie -1.72983
-5.25803 chydenius -1.9858
-2.88854 ci -1.88032
-3.78064 city -1.95584
-5.25803 citymarket -1.87872
-2.91533 co -2.05781
-3.25776 com -1.85348
-3.14381 con -1.9445
-3.33348 cor -1.82159
-3.43822 cr -1.85357
-3.33348 cz -1.56334
-2.82001 da -2.157
-3.03504 dan -1.89709
-2.70509 de -2.31885
-2.96772 den -2.20813
-3.01224 der -1.9557
-2.75397 di -2.04624
-3.06186 dia -1.87032
-2.87394 do -2.13983
-3.13391 don -1.93969
-4.05365 donna -1.79439
-3.18221 dor -1.6923
-4.02732 down -1.99455
-2.93142 du -2.13901
-3.4065 dun -1.87109
-3.04027 dy -2.00336
-3.61431 dä -2.00029
-2.68605 e -2.54934
-3.12422 ed -1.94597
-3.34927 ee -1.64734
-2.98824 een -2.80633
-3.05364 eh -1.88665
-3.81061 ehti -2.27982
-2.73142 ei -3.518
-3.14381 eksi -2.44712
-3.25776 ele -1.75553
-2.85292 eli -2.6665
-2.98824 elin -2.10467
-4.47965 elivät -3.00794
-2.99769 ella -2.88976
-3.36013 elli -1.92648
-4.14383 ellyt -2.20058
-3.32834 ellä -2.98977
-3.34395 elo -1.75771
-3.64498 elokuvia -2.79522
-3.20854 elä -2.27571
-4.08168 eläimiin -1.91192
-3.5174 eläin -1.8233
-3.78064 eläke -2.0341
-4.1786 eläkkeestä -2.22713
-3.85983 elämyksiä -2.74034
-3.47961 elämästä -2.93253
-3.06743 emme -2.84727
-3.57652 empi -2.18742
-5.25803 emännöi -1.27671
-2.44284 en -3.16461
-4.25778 ennakko -1.96965
-3.41266 ep -1.56324
-3.60455 epä -2.35379
-5.25803 epätoivo -1.87214
-2.84614 eri -2.43934
-3.02731 erin -2.30454
-3.00734 ero -2.07159
-2.80444 es -2.06912
-2.79987 esi -2.09551
-4.95686 esiintyneen -2.06858
-4.55884 esikois -1.92171
-4.08168 esikunta -1.94861
-3.78064 esimies -2.03238
-4.1786 esittä -2.1436
-3.72628 esitykseen -2.87175
-2.77062 essa -2.89635
-3.13065 essaan -3.5559
-3.32834 est -1.90517
-2.73793 et -2.67908
-4.21639 etelä -2.71937
-3.36013 ette -1.91002
-3.31824 että -4.10104
-3.05636 eu -2.50787
-3.64498 eyn -2.74993
-2.77203 f -2.35877
-2.9813 fe -1.7846
-3.06743 ff -1.98317
-2.88484 fi -2.01908
-3.26212 fil -2.02942
-3.32834 filmi -1.78549
-3.47961 filosofi -1.96021
-4.65577 finanssi -1.49641
-3.24072 fl -1.89882
-3.89604 fla -1.6246
-4.02732 fly -1.85673
-3.7137 foni -1.64364
-3.6557 fuusio -1.96638
-2.69665 g -2.4313
-2.80444 ga -2.08471
-3.03765 gan -1.78246
-2.9722 gen -1.8388
-2.9589 ger -1.97412
-2.93142 go -1.91345
-3.95674 god -1.52711
-2.6253 h -2.39176
-2.61827 ha -2.32737
-3.12422 haa -2.02795
-4.3547 haaska -1.42358
-4.11165 haasta -2.00115
-3.48691 haastattelu -2.03989
-4.25778 haasteen -2.62285
-3.13391 hahmo -2.45511
-3.32326 hai -1.81609
-3.73925 haita -1.98159
-3.75261 hallinnosta -2.49177
-3.8264 hallituksessa -3.11449
-3.13718 ham -1.82461
-2.31327 han -2.58471
-2.979 hanke -2.28534
-3.31824 hankkeesta -2.67663
-4.55884 hapen -2.05669
-3.72628 happo -1.34993
-3.02731 har -1.9631
-3.45842 harja -1.75753
-5.25803 harjoittama -2.08624
-3.36566 harjoitus -1.7404
-3.29397 harju -1.98271
-3.4065 harjun -2.19886
-4.47965 harki -1.64848
-5.25803 harkinnanvarais -1.76979
-3.81061 harmaa -1.87791
-3.50189 hdi -1.95748
-2.70875 he -2.66074
-3.84279 hedelmä -1.79392
-3.57652 heinä -1.82023
-3.40043 heit -2.3342
-3.91535 heittä -2.06013
-3.09639 hel -1.99827
-3.95674 heng -1.84765
-3.45842 hengen -2.47659
-3.30352 henkilö -2.19922
-3.6667 henkilöitä -2.66053
-4.65577 hermostu -1.82237
-4.78073 herättävä -2.11506
-2.78354 hi -2.06341
-3.61431 himo -1.62494
-4.4127 hiukka -1.63759
-3.72628 hiukkas -1.72367
-3.07024 hl -1.91227
-2.8904 ho -2.07224
-3.73925 hoh -1.84096
-3.19706 hoi -2.18509
-3.38853 hoido -2.22188
-3.23245 hoitaja -2.24901
-3.28463 hor -1.84701
-3.20854 hr -1.66805
-3.43168 hta -1.77527
-2.85292 hu -2.07074
-3.21243 hui -2.08633
-4.47965 hukan -1.85356
-3.97902 hukka -1.77735
-3.49433 hullu -2.20916
-3.72628 hum -1.65847
-3.95674 humala -1.64965
-3.32326 huolto -1.82597
-3.14381 huu -1.94294
-4.65577 huuda -1.79169
-3.49433 huuto -1.99439
-3.85983 hyl -2.20234
-4.4127 hyväksi -3.0874
-3.79537 hyökkäys -1.86143
-4.47965 hyökkää -1.99171
-5.25803 hyökännyt -2.52101
-3.38853 häiriö -1.86825
-5.25803 hämmentävä -2.0599
-4.95686 hämmästy -2.09576
-4.3547 hämär -2.18125
-3.24492 hö -1.77701
-2.49733 i -2.53203
-2.828 ia -2.66598
-3.26212 ida -1.87469
-2.95026 iden -2.75526
-3.595 ie -1.62679
-3.12422 ien -2.39175
-3.91535 iha -1.85709
-4.3547 ihastu -1.89939
-2.84952 ihin -3.47016
-3.57652 ihmiset -3.93947
-3.52537 ihmisten -3.5998
-2.94813 iin -2.90252
-3.38853 ikka -1.74268
-3.31824 ikä -2.25633
-3.595 ikäiset -2.8668
-3.60455 ilaisen -2.84147
-3.3827 ilevat -2.70397
-2.87215 ili -2.06772
-3.30837 ilija -2.02194
-2.59784 illa -3.07015
-2.55792 ille -3.05161
-3.00008 illä -3.53233
-3.56756 ilmoitus -1.98972
-3.16434 ilo -2.03036
-4.95686 iloitsi -2.53534
-3.67798 ilon -1.91571
-2.6143 ilta -2.40789
-3.02476 im -1.85717
-2.36901 in -3.08832
-2.73401 ina -2.41565
-2.76083 inen -3.27395
-3.7137 intia -2.52808
-3.72628 investoinnit -3.32803
-3.67798 investointeja -2.98211
-2.65461 is -1.94218
-2.99769 isella -3.15453
-3.36566 isellä -2.99532
-3.42525 isemmaksi -2.55178
-3.28463 isemmin -2.72029
-2.99294 isempi -2.82289
-2.85292 isen -2.96595
-3.04027 isena -3.03371
-2.979 isesti -3.40135
-2.80444 iset -3.0188
-2.67683 isi -2.38342
-2.89603 isia -2.93552
-2.77203 isiin -3.24421
-2.9836 isiksi -3.14534
-3.05636 isina -2.81173
-2.98824 isista -3.04628
-3.18221 isivat -3.03622
-3.14381 isiä -2.93708
-3.60455 iske -1.74876
-3.37127 ismi -1.89789
-2.64816 issa -3.18669
-2.96109 issä -3.30642
-2.55446 ista -3.0818
-2.79536 isten -2.80659
-3.33868 isti -1.77589
-3.70146 istunto -2.09146
-3.595 istunut -3.11385
-3.57652 istuu -2.62316
-2.95026 istä -3.06548
-3.18588 isuuden -3.0911
-2.99294 isuus -2.2481
-3.37127 isuutensa -2.40383
-3.06743 isuutta -3.03364
-2.93761 it -2.22558
-3.00734 ita -2.45899
-3.28003 itse -2.7309
-3.07307 itten -2.58321
-3.24072 itä -2.55916
-3.16434 iä -2.63432
-2.64923 j -2.28599
-2.35088 ja -3.77384
-4.78073 jakarta -2.12305
-4.95686 jakautunut -2.7325
-3.54176 jakelu -1.71842
-3.34927 jaoston -2.75898
-2.78064 jen -3.06308
-3.01971 jev -2.04888
-3.44485 jilla -2.77186
-3.45842 johta -2.13793
-3.17858 johto -2.21153
-3.49433 joille -3.02438
-2.979 joki -2.0837
-3.31328 joukon -3.16988
-4.55884 jouni -2.71732
-3.14717 juhla -1.96076
-3.7137 juhli -2.01089
-3.47961 juhlia -2.67643
-3.78064 juhlista -1.72091
-3.87756 jul -1.47822
-4.47965 julki -1.97403
-4.1786 julkis -2.18048
-3.40043 juuri -2.81277
-2.84782 jä -2.46265
-2.93761 järjestelmän -3.34047
-3.10854 järjestö -2.18484
-3.7137 järjestöjä -2.53603
-3.0591 järvellä -3.16083
-2.89982 järvi -2.34167
-3.40043 jäsen -2.3558
-4.78073 jätehuolto -1.60903
-3.36566 jätti -1.79982
-3.89604 jättiläis -1.25449
-2.3758 k -2.66726
-2.51425 ka -2.39907
-2.23409 kaan -3.08075
-3.48691 kaasu -1.77054
-3.08167 kadulla -2.97286
-3.8264 kahvilan -2.53482
-3.73925 kahvilassa -2.2772
-3.45158 kaksitoista -3.20793
-3.81061 kalastuksen -2.6227
-3.5174 kaluston -2.30477
-3.56756 kama -1.46594
-2.69073 kan -2.22916
-3.33868 kanava -1.9009
-3.45842 kanavan -2.43237
-3.07591 kangas -1.98916
-3.1933 kanka -1.97202
-3.14381 kankaan -2.32201
-3.52537 kanna -1.95065
-4.55884 kannatta -2.19126
-4.47965 kannattava -2.28185
-4.65577 kannattavuus -2.01965
-4.21639 kannatus -2.07966
-3.4065 kanne -2.03769
-4.02732 kannel -1.85056
-3.1933 kansa -2.30903
-4.05365 kansalais -2.18078
-4.05365 kansallis -2.25277
-3.22837 kansan -2.42232
-4.65577 kansaneläke -2.28144
-4.55884 kansanvalta -1.597
-4.65577 kansanäänestys -2.02948
-4.14383 kanssa -3.51229
-2.95456 kanta -2.18504
-3.28463 kantaa -2.98615
-4.25778 karsinnoissa -2.0688
-2.80597 kat -2.41617
-3.61431 katse -2.08554
-2.85122 katu -2.19231
-3.17858 kaudella -3.45775
-3.28003 kaupassa -3.15495
-3.67798 kauppoihin -2.65315
-3.37695 kaupungissa -3.14668
-2.59218 ke -2.36084
-3.39444 keino -2.10867
-3.52537 keittiö -1.58224
-3.73925 keittiön -2.76037
-3.85983 keitä -2.60405
-3.42525 kelin -1.96121
-3.24916 kelpo -2.11211
-2.88301 ker -2.02344
-3.46537 keräys -1.76659
-3.24916 kes -1.85632
-4.78073 keskiverto -1.182
-4.55884 keskiviikko -2.42875
-2.96995 keskus -2.33706
-3.15395 keskusta -2.27521
-3.31824 kesä -2.02569
-4.95686 kesäkuussa -3.52257
-3.75261 kettu -1.57469
-4.14383 keuhko -1.79903
-4.30354 keula -1.77918
-2.55189 ki -2.25707
-4.1786 kid -1.6231
-3.53348 kiekko -1.90311
-3.75261 kieko -1.95731
-3.14049 kieli -2.04609
-3.34927 kielto -2.116
-3.34927 kieltä -2.57838
-3.84279 kierrokselta -2.55641
-3.09939 kierros -2.50501
-3.95674 kiewicz -1.4008
-4.05365 kiih -2.43901
-3.31824 kilpailua -2.67651
-3.6667 kilvan -2.62365
-2.04106 kin -3.19647
-3.09044 kirjan -2.5778
-3.47961 kirjasto -2.00982
-3.55019 kisoja -2.66485
-3.14717 kissa -1.942
-2.87215 kk -2.3004
-2.94179 kka -2.07943
-3.13065 kkaan -2.57524
-2.93347 kki -1.80079
-3.04557 kko -1.89434
-3.17497 kku -1.68043
-3.26653 kkä -2.11326
-3.45158 klubin -2.48946
-4.1786 klusteri -1.36625
-2.32376 ko -2.54604
-3.29397 koe -1.84057
-3.10547 koh -2.19479
-3.45842 kohti -3.25822
-3.62429 koiran -1.9246
-3.32834 koista -2.54395
-2.9589 koko -2.98956
-3.15395 kolle -2.20994
-3.40043 kolmetoista -3.21964
-3.49433 komission -3.28884
-3.0934 koneen -2.64765
-3.6667 konferenssin -2.87603
-3.62429 konsertissa -2.66991
-3.3827 konsertti -2.12651
-3.50189 konttori -1.93194
-3.02731 koo -2.16593
-3.18957 kop -2.0052
-3.30837 kortin -2.59981
-3.25776 korva -2.00526
-3.56756 korvaus -1.89544
-3.16434 kos -1.8514
-4.1786 koskela -2.17833
-3.37695 koskelle -2.83317
-3.07307 kosken -2.32821
-4.55884 koskettava -2.06288
-2.9722 koski -2.26459
-4.4127 kostea -1.94152
-4.3547 kosto -1.83184
-3.14049 kot -2.12656
-3.04824 koti -2.24106
-5.25803 kotimaisia -2.88794
-3.84279 kotka -2.08735
-3.01224 koulu -2.25791
-3.0591 koulun -2.95059
-4.08168 koulutettu -2.66955
-3.15055 koulutuksen -3.04828
-3.11163 koulutus -2.07343
-4.1786 kriittinen -2.91387
-2.73531 kseen -3.72891
-3.36013 kseksi -3.02728
-3.25776 ksella -2.94858
-2.946 ksen -2.58462
-3.49433 ksestä -2.71508
-3.25344 kset -2.55323
-2.47385 ksi -3.01771
-4.55884 ktm -2.26214
-2.59594 ku -2.32331
-3.50957 kuitu -1.51559
-3.60455 kukkia -2.11797
-3.55019 kuljetukset -2.54021
-3.36566 kuljetus -1.80659
-2.84614 kulttuuri -2.07891
-3.20468 kulut -2.69454
-3.73925 kunnalta -2.67938
-3.02476 kunnan -2.93444
-3.02476 kunta -2.2565
-3.64498 kuoron -2.59017
-3.29872 kuri -1.92304
-3.48691 kurssien -2.32382
-4.1786 kustannuksiksi -2.31612
-3.70146 kustannuksissa -1.90444
-3.7664 kuuden -2.84616
-3.70146 kuukausi -2.32901
-3.22033 kuusikymmentä -3.50304
-3.46537 kuusitoista -3.14879
-3.03245 kuvi -2.22998
-3.35467 kyky -2.30392
-3.8264 kykynsä -2.60512
-3.7664 kykyyn -2.47372
-4.78073 kymmentäyksi -3.03993
-2.99059 kä -2.15026
-3.17497 kär -1.97569
-3.6667 käsky -2.07535
-3.45158 kät -2.05125
-3.41266 kävely -1.78319
-3.06463 käy -2.75073
-4.78073 käynnis -2.1375
-4.21639 käynnisty -2.18124
-3.38853 käynti -1.75544
-4.65577 käytettä -1.89547
-4.55884 käytety -2.01838
-4.4127 käyttäminen -2.36654
-3.10854 käyttö -2.01537
-3.26212 käytössä -3.44203
-3.09939 kää -2.0414
-2.58015 kään -3.18448
-4.30354 käänteen -2.29858
-4.30354 kääri -1.74077
-2.59218 l -2.24148
-2.471 la -2.59298
-2.86506 laa -2.26345
-5.25803 laajenne -1.80779
-3.85983 laajennus -1.94093
-4.55884 laajentumis -1.48524
-4.78073 laajentumisesta -2.63358
-3.13718 laan -2.29522
-3.18588 laati -2.21188
-3.33348 laatu -1.83111
-3.33348 laboratorio -1.73513
-3.34395 lahja -1.92506
-2.93761 lain -2.58825
-2.77631 lainen -3.5843
-2.84112 laisen -3.31202
-2.85122 laisia -3.41107
-2.95673 laisille -2.88996
-2.78209 laista -2.53541
-3.50189 laitoksesta -2.5917
-3.30352 laiva -1.76448
-3.38853 lakko -2.11998
-2.71743 lan -2.43419
-3.29397 landin -2.04638
-3.39444 lapsi -2.19558
-3.45158 laskun -2.78199
-2.90751 lasta -2.32469
-3.85983 laulujen -2.61511
-3.97902 lausunto -2.10005
-2.98824 lauta -1.92129
-3.4065 lautakunta -2.65531
-3.24072 lee -1.9609
-3.31328 lehdet -2.99105
-3.02731 lehti -2.0589
-3.10242 leiri -1.90012
-3.3827 lenin -2.27547
-3.61431 lenkki -1.93924
-3.6557 lennon -2.24826
-3.15395 lento -1.88249
-4.05365 lentopallo -1.78606
-4.25778 lentopalloilu -2.13965
-3.20468 ler -1.77785
-3.68956 levä -1.8403
-3.16785 ley -2.10565
-2.72756 li -2.13493
-3.68956 liiga -2.04988
-2.94389 liike -2.28098
-3.25776 liikenne -2.18258
-4.3547 liikennöi -1.93768
-3.7137 liiketoiminta -1.89234
-3.75261 liikkeelle -2.99266
-3.4065 liikkeestä -2.34389
-4.3547 liiku -2.03407
-2.93969 liiton -3.81466
-3.61431 liitot -2.84487
-2.94179 liitto -2.68956
-3.44485 lim -1.71605
-2.78209 lin -2.12981
-3.43822 linjat -2.47218
-3.72628 lippua -2.18103
-3.29397 listalla -2.9363
-3.24916 lisä -1.96238
-3.84279 litra -2.0234
-3.41891 lk -1.64911
-2.86682 ll -2.12095
-2.50341 lla -3.00361
-2.87936 llaan -3.11409
-2.44752 lle -3.21459
-2.82001 lleen -2.82836
-3.89604 lleet -2.94575
-3.25344 lliseksi -3.35395
-3.33868 llisella -3.16541
-3.78064 llisellä -2.26546
-3.35467 llisessa -2.88447
-3.18588 llisesti -3.56956
-3.63451 llisestä -2.88735
-3.29872 llisin -2.79951
-3.68956 llisistä -2.54103
-3.81061 llisuutensa -2.5461
-2.85982 llä -2.99773
-3.28463 llään -3.25899
-3.34395 lohko -2.08297
-3.64498 long -1.53762
-4.11165 loppu -2.21833
-2.58658 lta -2.83872
-2.9114 ltä -2.9419
-3.34927 ltään -3.32289
-2.58937 lu -2.13465
-3.75261 lukio -2.10137
-3.05636 luku -2.13868
-3.62429 lukuihin -2.69761
-3.10242 luo -2.38579
-3.32834 luokka -2.11245
-3.58566 luonno -2.27592
-3.95674 luonnon -2.17982
-3.87756 luonnos -1.83985
-3.35467 luonto -1.97963
-4.55884 luopu -2.09535
-4.47965 luottamuksen -2.52821
-3.18221 lupa -2.15564
-3.67798 lupien -2.56243
-2.91336 ly -1.89067
-4.11165 lypsy -1.38531
-4.1786 lyseo -1.66724
-4.11165 lysti -1.55866
-2.84952 lä -2.3718
-4.65577 lähdetty -2.76808
-3.8264 lähdössä -3.01534
-3.63451 lähetys -1.77099
-3.95674 lähtöön -2.36431
-3.14717 län -2.17451
-4.25778 länsi -2.2236
-2.50188 m -2.46579
-2.42974 ma -2.39185
-2.58473 maa -2.33963
-4.0025 maajoukkue -1.87228
-3.19706 maalle -2.50317
-2.59405 maan -3.11283
-4.55884 maanomistajien -2.36731
-3.24916 mahdollisuuksia -3.37619
-4.25778 mahdu -2.28432
-3.89604 mahti -1.56429
-3.84279 maila -1.96373
-2.86682 mainen -3.20486
-3.91535 maini -2.00651
-3.67798 maiseman -2.26563
-2.84112 maista -2.2033
-3.81061 maito -1.74009
-4.4127 major -2.02277
-4.1786 makaa -1.84843
-4.47965 makasi -2.12535
-3.70146 make -1.64392
-4.0025 makeis -1.55793
-5.25803 makkonen -2.80724
-3.67798 maksa -2.19593
-4.78073 maksamaan -3.31983
-2.93761 malla -2.99603
-3.24916 mallit -2.30276
-2.67683 man -2.39868
-3.15055 markkinoiden -3.46266
-3.68956 mart -1.87598
-2.77631 massa -2.48059
-3.07024 masta -2.99134
-3.40043 matkoilla -2.91531
-3.42525 matonta -2.72175
-3.07878 matta -2.53755
-3.8264 mattomaksi -2.49049
-3.50957 mattoman -2.72093
-3.85983 mattomuuden -2.42729
-3.33348 mba -1.39337
-2.60551 me -2.56396
-3.62429 melo -1.47085
-3.62429 melu -1.78787
-3.21243 meno -1.97861
-2.96109 mer -1.89409
-3.01721 meri -1.9457
-2.99294 met -2.06999
-3.15395 metsä -2.11447
-3.47961 metsän -2.09111
-4.47965 metsänhoito -1.94436
-4.95686 metsäpalo -1.69116
-2.68955 mi -2.0626
-2.95673 mia -2.46473
-3.3827 mic -1.64421
-3.21637 mie -2.04705
-3.21637 miehistä -2.95564
-3.84279 miehistön -2.37303
-3.79537 miel -1.9935
-3.89604 miele -1.98094
-4.95686 mielekkää -2.17752
-3.42525 mieli -2.16185
-4.3547 mielipide -2.25434
-4.65577 mielipitei -1.96243
-2.93761 mien -3.0917
-2.67342 mies -2.38604
-2.85636 miin -2.74091
-3.18588 miksi -3.25219
-4.47965 miliisi -1.73205
-3.50957 miljöö -1.90328
-2.89227 minen -3.49223
-3.30352 mini -1.48456
-3.50957 ministerin -2.58842
-3.44485 ministeriö -2.87991
-3.45158 ministeriön -3.65957
-2.77062 mis -2.02762
-3.11163 miselle -3.09074
-2.9213 misen -3.60985
-3.02987 misesta -3.64684
-3.15395 miset -2.60943
-3.11163 missa -2.46487
-2.83615 mista -2.82872
-3.20085 mistä -3.2565
-3.40043 mmaksi -3.22133
-3.55879 mmalla -2.61709
-3.31824 mman -2.33658
-3.35467 mmat -2.26385
-2.36123 mme -3.13751
-3.6667 mmältä -2.28647
-2.63142 mo -2.20252
-3.23657 mpaa -2.40522
-3.01721 mpi -2.24626
-3.29872 mpia -2.39279
-3.4065 muka -2.1961
-3.02476 mur -2.1595
-3.6557 musiikkiin -2.79478
-3.63451 mutta -3.96672
-3.85983 muutoksesta -2.65832
-3.91535 myk -2.15754
-4.08168 myötä -2.62923
-5.25803 myötätunto -1.60031
-2.828 mä -2.23254
-4.78073 mädän -1.65531
-2.85636 mäen -2.70545
-4.95686 mäkelän -2.67508
-2.88301 mäki -2.41788
-3.36013 män -1.93259
-4.21639 männikö -1.46684
-3.67798 mänty -1.7979
-3.34927 mättä -2.57386
-4.65577 mäyrä -1.36548
-3.0934 määri -2.37478
-2.80139 määrä -2.85557
-4.95686 määrätietois -1.90701
-3.75261 määräys -2.2634
-3.64498 määräysten -2.5092
-3.22433 määrää -2.95881
-3.21637 mö -1.92622
-2.31974 n -3.42956
-2.50725 na -2.77729
-3.40043 naama -1.8075
-3.67798 naamio -1.62422
-3.79537 naapuri -1.98683
-4.08168 naapurin -2.39275
-3.14381 nainen -3.58274
-3.25776 naisen -2.66392
-2.45911 ne -2.8382
-2.97446 nee -2.32235
-3.14717 neelle -2.95775
-2.74321 neen -3.32259
-3.18221 neensa -3.26702
-3.24072 neesta -3.3717
-2.87394 neet -3.34573
-3.37695 neisiin -2.73447
-3.14381 neista -2.90575
-3.49433 nell -2.04164
-2.79686 nen -3.02636
-3.02731 ner -1.78878
-2.29681 ni -2.48868
-3.07024 nie -1.81112
-3.46537 niemelle -2.17668
-3.03765 nimi -2.41058
-3.67798 niska -1.78052
-3.43822 nnan -2.09084
-3.58566 nnasta -2.83541
-2.70025 no -2.2832
-3.61431 nope -2.27801
-3.46537 nopeus -1.94775
-3.21637 nor -1.94784
-4.11165 nord -1.75503
-4.95686 nordbanken -2.14654
-4.47965 norja -2.74773
-4.47965 norjalais -1.45912
-4.55884 norjalaiset -2.81662
-4.65577 nostettava -2.15736
-4.47965 nostettu -2.75624
-5.25803 noudatettava -1.90223
-4.95686 noudatta -2.02513
-4.95686 noussee -2.35935
-3.5174 nousu -2.07734
-2.5294 nsa -3.18549
-4.21639 nuorison -2.49356
-4.1786 nuotta -1.39635
-2.85982 nut -2.99345
-2.99059 nyt -3.705
-4.02732 näyttelijöiden -2.73398
-2.52859 o -2.2808
-4.0025 odotukset -3.04079
-3.40043 off -1.97433
-3.33348 ohje -1.99598
-2.9114 ohjelma -2.22624
-3.13391 ohjelmaa -3.14852
-2.98824 ohjelman -3.15089
-3.24916 oiden -2.97253
-4.65577 oikeusministeri -2.37737
-3.33868 oissa -2.7
-3.29397 oista -2.73421
-3.33348 ojan -2.0587
-3.20468 ol -1.90828
-3.17858 ola -1.89112
-2.92938 oli -3.41446
-2.9233 olla -3.33639
-2.828 olo -2.05735
-3.07878 oma -2.3417
-3.79537 omaisuudesta -2.37984
-4.4127 omavarais -1.41128
-3.5174 omi -1.57689
-4.0025 omilla -2.60267
-3.595 omista -2.38554
-3.52537 omistaja -2.24386
-3.81061 omistajan -2.78254
-3.89604 omistukseen -3.14307
-3.6667 omistus -2.04244
-5.25803 omituis -1.96429
-2.51268 on -3.80446
-3.16085 ongelmat -3.22714
-3.37695 ongelmiin -2.7259
-3.42525 ooppera -1.90144
-4.78073 opettaa -2.61542
-3.43822 opetus -2.10541
-3.31328 opi -1.84256
-3.64498 opiston -2.5574
-3.28463 orkesteri -2.18073
-2.75397 osa -2.53424
-4.05365 osansa -3.66355
-3.43168 osista -2.34167
-3.07878 ossa -2.68054
-4.05365 ossi -1.94867
-3.50189 otta -1.83614
-3.29872 otte -1.86212
-3.30352 otti -2.20696
-3.34395 ov -1.9138
-3.33868 ovin -2.30402
-2.56756 p -2.48874
-2.44351 pa -2.36886
-3.60455 pahan -2.38294
-3.10854 paikalle -3.02095
-3.14049 paikasta -3.03866
-2.78646 paikka -2.42763
-3.08167 paikkojen -2.93094
-3.3827 paikoissa -2.42733
-3.13391 paketin -2.7315
-3.0591 paketti -2.00796
-4.0025 pakosta -2.2409
-2.90557 pala -2.1332
-4.55884 palloilijoiden -2.02595
-2.92938 palo -2.16987
-2.90945 palvelu -2.06046
-3.50957 palveluissa -2.5953
-3.02987 palvelut -3.13737
-3.73925 pam -1.89587
-4.78073 panama -1.77168
-3.61431 pane -2.09003
-4.47965 pankinjohtaja -2.32015
-3.85983 pankissa -2.40128
-3.7137 pankit -2.83184
-3.14717 pankki -2.15559
-4.14383 pankkiiri -1.60891
-4.21639 pantu -2.06076
-3.16085 paperi -1.88545
-2.86859 par -2.17117
-2.946 pari -2.43515
-3.87756 parkki -1.80214
-3.89604 parlamentti -2.3132
-3.7137 parta -1.66301
-3.33868 partio -1.87193
-3.07024 pat -1.98593
-3.55879 peleistä -2.54413
-3.37695 pelejä -2.86883
-2.96772 peli -2.04825
-2.88301 per -2.10581
-3.28463 perhe -1.98441
-3.16085 peri -1.94942
-3.79537 periaatetta -2.29302
-3.5174 periaatteen -2.57559
-2.9655 perä -2.03647
-4.1786 pielessä -2.18566
-3.50189 piikki -1.56603
-3.1714 piireissä -3.02382
-4.08168 piirustukset -2.7676
-3.60455 pio -1.61286
-3.84279 pisteellä -2.91458
-3.7137 pisti -2.06968
-4.47965 pitäen -3.11224
-2.64497 po -2.16182
-2.71868 pohja -2.11808
-3.26212 pohjaa -2.24275
-4.55884 pohjoismaiset -2.70069
-2.92734 poika -2.33309
-3.37127 poikien -3.17759
-3.32834 poliisi -2.47217
-3.55019 poliittinen -3.58375
-3.6667 poliittisen -3.46453
-3.79537 poliittisessa -2.94674
-3.64498 poliittista -3.46939
-3.17858 polku -1.96687
-3.3827 polun -2.0599
-3.89604 ponnistus -1.97496
-3.41891 pop -1.69443
-3.67798 populaatio -1.39034
-4.30354 populisti -1.66219
-3.25776 por -1.84497
-3.55019 poro -1.54024
-5.25803 porsche -1.6821
-3.34927 port -2.16688
-3.29397 porta -1.96208
-3.3827 portin -2.02898
-3.34927 pot -1.73537
-3.63451 potentiaali -1.89947
-3.7137 potilas -1.93246
-3.68956 potilasta -2.52145
-3.75261 potista -2.4146
-4.14383 potki -1.68993
-3.57652 potku -1.9095
-3.03765 pp -1.82374
-3.1933 ppi -1.58073
-3.18588 pr -1.88514
-3.81061 presidentti -2.85245
-4.4127 presidenttinä -2.51926
-3.28003 pri -1.69061
-2.93554 pro -1.99358
-4.78073 propagandisti -0.968028
-3.63451 pros -1.83971
-3.37127 prosentti -2.33552
-3.45842 prosessin -2.52117
-3.97902 proteesi -1.35634
-4.55884 protestoi -1.56671
-4.95686 provosoi -1.27902
-3.20085 ps -1.87345
-3.8264 psyko -1.83269
-2.61037 pu -2.20008
-4.3547 puhdistuksen -2.47547
-3.34395 puhe -1.78998
-3.07024 pul -1.80228
-3.10854 puolelle -3.06371
-2.88118 puoli -2.29684
-2.90173 pur -2.03756
-3.62429 purka -1.90365
-3.37127 putken -2.37878
-3.20854 puuta -2.67026
-3.93555 puute -2.41307
-3.595 pyl -2.03445
-3.30837 päivi -2.49204
-3.10854 päivien -3.10214
-2.93969 päivän -2.97341
-2.979 päivänä -3.64417
-4.0025 pääministeri -2.8507
-3.16785 pään -2.186
-4.08168 päästöistä -2.75599
-3.18957 päätöksen -3.29324
-3.20085 päätös -2.43358
-3.57652 päätösten -3.01329
-3.07307 que -1.75754
-2.59405 ra -2.20533
-3.47243 rahoitus -2.11083
-3.78064 rahti -1.49341
-3.03245 rai -2.00256
-3.60455 raita -1.4192
-4.47965 raitiovaunu -1.65529
-3.07307 raja -2.14933
-3.20854 rajan -2.6609
-3.89604 raju -2.38233
-3.16085 rak -1.70483
-3.85983 rakas -2.16703
-3.73925 rakasta -2.0902
-3.29397 raken -2.14214
-3.5174 rakennu -2.02453
-3.09044 rakennus -2.23962
-4.08168 rakennusmestari -1.91352
-4.30354 rakennuttaja -1.70588
-3.72628 rakentamis -1.49436
-3.41891 rakentamisen -3.39858
-4.78073 rakentava -2.08436
-4.95686 rakentuva -2.04416
-3.08457 rannan -2.5375
-3.3827 rannassa -2.61371
-3.0934 rata -1.86512
-3.52537 rb -1.43955
-2.51898 re -2.35879
-3.16785 reiden -2.94183
-3.7664 rekisterissä -2.06302
-3.56756 remontin -2.96687
-3.50189 reuna -1.86824
-4.25778 reunalla -2.38339
-2.65897 ri -2.08111
-3.17497 ria -1.83046
-3.53348 ries -1.78355
-3.00978 rii -2.06052
-3.10547 rik -1.99081
-3.95674 rikollis -1.90065
-2.74454 rin -2.13268
-3.05093 ring -1.96281
-3.47243 rinta -1.83382
-3.03245 rit -1.90796
-2.69427 ro -2.20896
-3.55879 rockin -2.63484
-4.30354 rohkeutta -2.24972
-3.41891 romaani -2.16168
-4.25778 romahdus -2.06231
-3.75261 romu -1.6555
-3.41891 rooli -2.10833
-4.65577 roolihahmo -1.45173
-2.70145 ru -2.07108
-3.6667 rupea -1.91122
-3.20468 rus -1.78307
-4.21639 rusko -1.47553
-3.89604 ruuan -2.35619
-4.1786 ruuna -1.85818
-3.45842 ruusu -1.78305
-3.39444 ryhmille -2.48577
-3.08167 ryhmiä -3.21879
-2.67456 ryhmä -2.44047
-3.02476 ryhmässä -3.03142
-4.1786 räty -2.1145
-3.1933 rö -1.78901
-2.27639 s -2.76745
-2.48033 sa -2.7597
-2.74721 saa -3.02008
-4.30354 saama -2.35801
-4.65577 saapu -2.34418
-3.1933 saareen -2.57136
-3.87756 saarela -2.29126
-2.98592 saari -2.25085
-3.84279 sairauksia -2.18849
-3.23245 sal -1.66741
-3.16085 sali -1.8438
-4.55884 salibandy -1.69498
-4.0025 salli -2.15113
-3.35467 salmi -2.05745
-3.16434 salon -2.40476
-4.95686 salzburg -1.83123
-3.72628 sama -2.52976
-4.1786 samalla -3.7221
-4.08168 saman -2.74167
-3.55879 sanoja -2.54499
-3.06463 sarjassa -3.40915
-3.20085 sat -2.00844
-3.93555 sateessa -2.53188
-4.78073 schmitt -1.77416
-4.95686 schönberg -1.55877
-2.32834 se -3.13272
-4.05365 seikka -2.60379
-3.08457 seitsemän -3.41242
-3.36566 sektori -2.0504
-3.01224 sella -2.33599
-2.89227 selle -2.77629
-3.12422 selta -2.68988
-3.28928 seminaarissa -3.14516
-2.52376 sen -3.27239
-3.08167 sessa -2.74366
-3.03504 sesta -3.03069
-3.81061 seurakunta -2.05248
-4.05365 sfääri -1.33861
-2.84446 sh -1.97626
-3.09939 sha -1.78261
-3.31328 she -1.52776
-3.29872 sho -1.46329
-2.31426 si -2.50528
-2.86859 sia -2.41678
-4.65577 sianliha -1.81153
-4.78073 sidosryhmien -1.817
-3.6557 sielu -1.85869
-4.47965 sielun -1.86918
-3.7137 sihteerinä -2.5365
-2.9213 siin -2.26176
-3.75261 siirron -2.75169
-3.50957 sila -1.60646
-2.71994 sille -2.98571
-3.09639 sillä -4.14162
-2.56579 sin -2.45081
-3.50189 sini -1.83349
-4.3547 sisustus -1.66664
-4.0025 sisä -2.06503
-5.25803 sisäasiain -2.37459
-2.92734 sit -2.07821
-4.47965 sitkeä -2.10141
-3.06463 ske -2.07673
-2.91533 ski -1.84875
-3.68956 soittaja -1.92204
-3.75261 sopu -1.7774
-2.48251 ssa -3.26005
-3.12104 ssi -1.56522
-2.78064 ssä -3.17913
-2.74056 st -2.14977
-2.39622 sta -3.11547
-3.61431 stelevat -2.76519
-2.72246 sti -2.49433
-2.98592 sto -1.80532
-3.39444 stre -1.45488
-2.79089 stä -3.14952
-2.59784 su -2.31047
-3.25776 suhde -2.22303
-3.47243 suhteista -2.34187
-3.79537 sunnuntai -2.16717
-2.86156 suo -1.92829
-3.47961 suojelu -1.96999
-3.78064 suomalaisia -3.44935
-3.68956 surma -2.12518
-3.07878 suun -2.1348
-3.68956 suunnan -2.27069
-4.02732 suunnat -2.4545
-3.55019 suunnitel -1.93046
-3.27099 suunnittelu -1.86391
-3.25776 suunta -2.31622
-3.87756 suuntaa -2.18832
-5.25803 suupiel -1.83043
-3.55019 suur -2.03992
-5.25803 suurehko -1.73964
-2.89792 sy -1.94926
-5.25803 sydäninfarkti -1.57803
-3.25344 syn -1.96708
-4.3547 syntyisi -2.55751
-4.55884 syntymä -1.68959
-3.95674 syty -2.20932
-3.72628 syv -2.61572
-3.97902 syvä -2.07751
-3.28003 syy -2.38042
-4.65577 syyllisyyden -2.19767
-4.3547 syynä -2.78783
-3.75261 syys -1.7635
-3.6667 syyt -2.46106
-3.70146 syyte -2.05821
-3.21243 syö -2.42683
-4.08168 syöksy -1.7357
-3.67798 syöpä -2.10152
-4.05365 syöpään -2.37319
-3.8264 syöttö -1.60909
-4.3547 syöttöä -2.26001
-2.7678 sä -2.75327
-2.26564 t -3.33969
-2.36455 ta -2.86268
-2.828 taan -2.7954
-2.69309 tai -3.24617
-3.25344 taiteen -2.71595
-3.52537 taiteilijan -2.5258
-3.14049 takaa -2.82816
-4.08168 takaus -1.62151
-4.65577 talletus -1.60158
-3.24492 taloon -2.91186
-3.1714 talous -2.23645
-3.60455 talouteen -3.00335
-3.60455 taloutta -2.82728
-3.72628 tapaamisessa -3.003
-3.81061 tappion -2.80391
-4.65577 tarkoituksellis -1.57077
-3.6557 tasapaino -2.08971
-3.31328 tava -2.23063
-3.81061 tavaratalo -2.09969
-2.54092 te -2.29578
-2.87037 tee -2.30055
-3.04027 tehdas -1.99327
-3.24492 teilla -2.58798
-3.00248 teille -2.86345
-3.22837 teillä -3.12054
-3.33868 teineen -3.0502
-3.50189 teissä -2.38998
-3.35467 teitä -2.97052
-4.55884 tekeviä -2.32427
-3.04027 tekniikan -3.02661
-3.33868 teknologian -3.0249
-3.8264 tekstiili -1.71894
-2.80291 tel -1.91762
-3.06463 tele -2.13569
-3.81061 telia -1.99154
-3.17858 tella -2.64912
-3.22837 tellen -2.82555
-3.49433 telu -1.80782
-3.63451 telua -2.20578
-3.49433 tely -1.82402
-2.67117 ten -2.75339
-3.47243 teosta -2.81534
-2.82319 ter -2.0418
-4.55884 terveydenhuoll -3.27743
-3.23245 tetaan -3.39715
-3.30837 tettava -2.77975
-3.1933 tettu -3.09779
-2.54092 ti -2.27723
-3.18221 tia -1.77693
-3.55019 tiedustelu -1.95969
-4.0025 tieteellisiä -2.47658
-3.97902 tietoisuus -2.55979
-2.95456 tiin -2.40816
-3.84279 tiivinen -2.65869
-2.92734 tilaa -2.6506
-3.55019 tilaisuutta -2.4507
-2.90751 tilan -2.46026
-3.24916 tiloihin -2.71556
-2.72756 tin -2.15498
-3.91535 tivät -2.7051
-2.63658 to -2.17394
-2.86506 toiminnan -3.37156
-3.14381 toiminnassa -2.88805
-2.8904 toimintaa -3.53828
-3.43168 toimintoja -2.4008
-3.7664 tointa -1.65212
-3.36566 toni -2.05772
-3.45842 top -1.81335
-2.89982 tor -1.8815
-2.96995 tori -1.74679
-3.56756 torjunta -1.7867
-3.26212 torni -1.81706
-4.08168 torpan -1.82297
-3.91535 torppa -1.83434
-3.41891 tosi -2.04419
-3.33868 tot -2.01398
-4.78073 totalit -2.17778
-4.4127 toteu -2.2826
-5.25803 toteutuma -2.05909
-4.47965 toteutus -1.76356
-3.81061 toto -2.21317
-4.11165 totta -2.5924
-3.63451 toverei -2.32648
-3.0875 tri -1.71974
-3.0875 tro -1.74169
-4.47965 troolari -1.31875
-2.71245 tta -2.45625
-3.14717 ttaessa -3.07813
-3.00008 ttaisi -2.6987
-3.43168 ttamista -2.72914
-3.11474 ttavia -2.79188
-3.18957 ttavien -2.67533
-3.22433 ttaviksi -2.4848
-3.23245 tteja -2.90826
-3.26653 ttelee -3.0873
-3.32326 ttelu -1.81214
-2.71618 tti -2.09391
-3.34927 ttivat -2.92741
-3.24492 ttomia -3.14349
-3.41266 ttomien -2.80604
-3.48691 ttomiksi -3.02341
-2.86859 ttu -2.39023
-3.04027 ttua -2.4865
-3.12742 tty -2.30481
-3.12104 ttä -2.38554
-3.49433 ttäjä -1.94025
-3.6557 ttämisestä -2.65859
-3.30352 ttävä -2.90223
-2.6094 tu -2.32549
-4.47965 tuhanteenyhdeks -4.27634
-3.64498 tuhat -2.78865
-4.30354 tuhatkuusisataa -2.80942
-4.11165 tuhatneljäsataa -2.57558
-3.38853 tuille -2.46719
-3.97902 tuke -2.03221
-4.65577 tukeva -2.21963
-4.65577 tukholma -2.51304
-2.88484 tuki -2.17527
-3.62429 tukia -2.22496
-3.45158 tukka -1.94183
-3.03765 tuksen -3.08463
-3.23245 tuksia -2.98462
-3.46537 tul -1.74109
-3.34395 tule -2.51413
-3.8264 tulehduksi -1.81192
-3.6557 tulehdus -1.77619
-4.95686 tulennielijä -1.31747
-4.95686 tulevaisuuteen -2.85904
-3.16085 tuli -2.79685
-4.65577 tulkittu -2.12738
-3.24072 tulle -2.3518
-3.70146 tulli -1.92784
-3.4065 tuminen -3.10982
-3.595 tumisesta -2.39262
-2.70266 tun -2.44415
-3.27549 tunne -2.09171
-3.35467 tuotannossa -2.49085
-3.6557 tuotetta -2.22445
-3.09044 tutkija -2.2831
-2.69785 ty -2.38114
-3.67798 tyivät -2.90845
-3.47961 tyksen -2.76369
-3.70146 tyneet -2.67108
-3.26212 tys -1.59444
-3.37695 tytön -2.38785
-3.5174 tyyliä -2.43674
-3.05093 työryhmä -2.9339
-2.77631 tä -2.72449
-3.5174 täh -2.00707
-3.84279 tämään -2.76821
-3.79537 täviä -2.5867
-2.62733 u -2.27418
-3.73925 udutaan -2.47498
-3.75261 uduttava -1.83768
-3.37127 ukko -1.73508
-3.07307 ukseen -3.40589
-3.11474 ukselle -2.94729
-3.07307 uksessa -3.01651
-3.11474 ukset -3.05606
-3.24072 uksiin -3.30295
-3.24492 uksissa -3.08944
-3.0049 um -1.86562
-2.79089 un -2.49002
-3.70146 urakoi -1.76563
-2.73662 us -2.03483
-4.14383 uskoi -2.50729
-3.67798 utettu -2.41423
-3.7137 uttanut -2.30561
-3.14717 utu -2.17856
-3.29872 utuminen -3.16622
-3.64498 utumisesta -2.67806
-3.44485 utumista -2.42661
-3.61431 utuneita -2.92962
-3.41891 uuden -3.21905
-3.60455 uudesta -2.96055
-3.6667 uudet -3.12989
-3.7664 uudistuksessa -2.32825
-3.70146 uudistuksesta -2.40034
-3.4065 uudistus -2.06844
-3.35467 uus -1.95073
-3.39444 uutta -2.91449
-2.58937 v -2.38668
-2.48324 va -2.49617
-2.78209 vaa -2.33033
-2.9836 vaan -3.25207
-2.84112 vaara -2.63421
-2.85636 vaaran -2.6452
-3.43168 vaate -1.62958
-4.21639 vaatimuksensa -2.65356
-3.54176 vaihdosta -2.33283
-3.20085 vaiheen -3.00963
-3.46537 vaihtoehdon -2.77551
-3.27099 vaikut -2.29703
-3.37695 vaikutus -2.59931
-4.11165 vakuutusmaksu -1.90661
-2.78354 val -2.12512
-3.75261 vallassa -2.76201
-2.77488 valta -2.27407
-3.78064 valtuuskunnan -3.13369
-3.53348 valvontaa -2.50836
-2.6723 van -2.60581
-3.12104 vana -2.14584
-4.78073 vantaan -2.91446
-3.50957 vapaa -2.56725
-4.78073 vapaaehtois -2.03345
-2.96109 vara -2.21002
-4.08168 varas -2.10179
-4.08168 varasta -1.77364
-3.05364 varasto -2.00236
-4.11165 varastoi -1.67681
-4.4127 varmuudella -2.76056
-3.55879 varo -1.77999
-3.63451 varoi -2.3143
-3.8264 varoilla -2.09456
-3.97902 varpa -1.91924
-5.25803 varteenotettavi -1.50731
-2.83451 vasta -2.67988
-3.595 vastaan -3.27398
-4.65577 vastaanottaja -1.52919
-4.4127 vastaanotti -2.24332
-3.84279 vastaanotto -1.8586
-4.95686 vastakkain -2.80742
-4.11165 vastuita -2.19635
-3.23657 vastuu -2.22969
-2.82639 vat -3.2104
-5.25803 vattenfall -2.17199
-3.41891 vauhti -1.93613
-3.26653 vaunu -1.87093
-5.25803 vaurioitta -1.32088
-4.95686 vaurioitu -1.69063
-2.56667 ve -2.23178
-3.22033 ved -1.824
-3.13718 veden -2.31755
-3.5174 vedet -2.53818
-4.55884 vedetty -2.54135
-4.78073 vedettävä -1.82733
-3.79537 vedon -2.27472
-3.32834 veh -1.81937
-4.78073 vehnäjauho -1.65754
-4.1786 veikka -1.95974
-4.55884 veikkaus -1.83469
-3.85983 veikko -2.61834
-3.60455 velan -2.33918
-2.9655 ven -1.99087
-3.595 veneiden -2.46389
-3.30837 veri -1.76122
-3.52537 verta -2.11126
-2.96772 vesi -2.18352
-3.68956 vesillä -2.78025
-2.8378 vien -2.97816
-3.6557 vienti -1.93058
-3.00978 viisi -3.40035
-3.14717 viisikymmentä -3.69594
-3.13391 viisisataa -3.22029
-3.36013 viiva -3.80853
-3.11474 viksi -2.64512
-2.80597 ville -2.85357
-3.44485 villä -2.71423
-2.75397 vin -2.15544
-3.15055 vina -2.23356
-3.52537 viraston -2.77627
-3.48691 visa -1.6526
-4.55884 visiiri -1.66101
-3.12742 vissa -2.70528
-2.91533 vo -1.96454
-2.80139 voi -3.15278
-4.47965 voittavat -2.57158
-3.29872 vol -1.79975
-3.05636 vuoren -2.2428
-3.18588 vuosien -3.61975
-3.06743 vy -1.81013
-3.56756 vyys -1.84957
-2.78354 vä -2.39736
-4.55884 väitä -2.2198
-3.28003 väl -2.28677
-4.02732 välinen -3.40904
-4.4127 välittäjien -2.27295
-3.15395 vät -3.39156
-2.89982 w -2.08714
-2.9655 wa -1.94539
-3.70146 ward -1.85612
-3.52537 well -1.80377
-5.25803 westermarck -1.89448
-4.65577 white -1.8115
-2.97446 wi -1.92761
-4.11165 wil -1.54434
-3.95674 wind -1.42398
-3.32834 wo -1.4801
-4.30354 wolf -1.75872
-3.5174 wood -1.96573
-2.77346 y -2.23097
-3.39444 yde -2.00216
-3.70146 ydin -1.90821
-4.95686 ydinase -1.62947
-3.55019 ydy -2.10179
-3.13718 yhdeksän -3.40433
-4.14383 yhdeksäntuhatta -2.86311
-4.4127 yhdeksäs -3.25151
-3.91535 yhden -3.21312
-4.55884 yhdestä -3.2069
-3.00978 yhdistyksen -3.29952
-3.01472 yhdistys -2.51805
-3.6557 yhteen -2.79955
-3.60455 yhteis -1.95447
-3.58566 yhteiskunta -2.11044
-4.55884 yhteistoiminta -1.81392
-3.31824 yhteistyö -2.13865
-5.25803 yhteisvastuu -1.85425
-3.16434 yhteisö -1.9761
-4.78073 yhteisövero -1.90625
-4.78073 yhtenäis -1.66394
-2.94179 yhtiö -2.49497
-3.25344 yhtiöt -3.37507
-2.71868 yksi -3.19283
-3.40043 yksitoista -3.08737
-3.43822 yleisö -2.10747
-3.60455 yleisöä -3.1622
-3.04557 yli -2.68515
-3.09044 yn -2.30894
-3.32834 yri -1.75419
-3.52537 yrityksiin -2.67547
-3.52537 yrityksille -3.05676
-2.95026 ys -1.74214
-3.43168 yty -2.20435
-4.02732 yytensä -2.59673
-2.785 z -2.17441
-2.61135 ä -2.98168
-2.96995 än -2.77295
-2.86506 ään -2.69743
-4.02732 äänestystä -2.92251
-4.78073 äänsataan -4.1001
-2.58473 ö -1.97643
-3.28463 öö -1.69816

\2-grams:
-0.955008 <UNK> <UNK>
-0.133998 <UNK> <w>
-1.97754 <UNK> a
-3.54953 <UNK> aan
-4.8887 <UNK> aar
-4.93065 <UNK> ah
-4.63891 <UNK> ahti
-4.01323 <UNK> aika
-4.28222 <UNK> aikaa
-6.5817 <UNK> aikuis
-6.87609 <UNK> aila
-5.20864 <UNK> aisti
-5.08027 <UNK> aita
-5.74367 <UNK> aivo
-3.92986 <UNK> ajan
-6.59482 <UNK> ajanjakso
-5.88779 <UNK> aktiivisuutta
-4.29704 <UNK> al
-4.15884 <UNK> ala
-5.50832 <UNK> aloite
-5.55424 <UNK> aloitte
-4.2658 <UNK> alueella
-4.97471 <UNK> alusta
-4.80829 <UNK> aminen
-5.22657 <UNK> ammatti
-6.21375 <UNK> ampuma
-2.39169 <UNK> an
-6.34509 <UNK> analyytiko
-4.99094 <UNK> and
-6.43355 <UNK> andre
-5.39557 <UNK> anna
-5.10213 <UNK> anne
-5.03371 <UNK> anni
-7.46944 <UNK> anniskelu
-5.16546 <UNK> ano
-4.01923 <UNK> ansa
-5.20021 <UNK> anssi
-5.05408 <UNK> anti
-5.51471 <UNK> apulais
-4.34988 <UNK> ari
-4.35711 <UNK> as
-4.70465 <UNK> aseen
-5.2194 <UNK> asemat
-5.35057 <UNK> asettelu
-5.83274 <UNK> asiakkaista
-4.16527 <UNK> assa
-4.11438 <UNK> asta
-4.81532 <UNK> ava
-6.49123 <UNK> avaruus
-5.39241 <UNK> avaus
-6.16705 <UNK> avo
-5.32189 <UNK> avustus
-4.16965 <UNK> b
-4.32867 <UNK> ba
-5.71886 <UNK> bag
-5.37851 <UNK> bal
-5.83961 <UNK> baletti
-6.28377 <UNK> balladi
-5.02472 <UNK> bar
-4.09966 <UNK> berg
-4.64318 <UNK> bergin
-4.38361 <UNK> bi
-5.39459 <UNK> bis
-7.72561 <UNK> brass
-4.65852 <UNK> by
-5.17975 <UNK> bäck
-3.97017 <UNK> c
-4.3304 <UNK> ce
-4.23204 <UNK> ch
-4.89189 <UNK> che
-4.63195 <UNK> chi
-6.12189 <UNK> chris
-4.55568 <UNK> ci
-5.36861 <UNK> city
-4.55806 <UNK> co
-5.17023 <UNK> com
-4.96423 <UNK> con
-5.32242 <UNK> cor
-5.55167 <UNK> cr
-5.52759 <UNK> cz
-3.76937 <UNK> da
-4.42033 <UNK> dan
-3.65123 <UNK> de
-3.99682 <UNK> den
-4.34467 <UNK> der
-3.8529 <UNK> di
-4.77104 <UNK> dia
-3.97049 <UNK> do
-4.63669 <UNK> don
-5.78008 <UNK> donna
-4.84288 <UNK> dor
-5.91403 <UNK> down
-4.13399 <UNK> du
-4.74432 <UNK> dun
-4.21827 <UNK> dy
-4.69247 <UNK> dä
-3.29543 <UNK> e
-4.59452 <UNK> ed
-4.83473 <UNK> ee
-3.40722 <UNK> een
-4.79794 <UNK> eh
-5.13434 <UNK> ehti
-3.45461 <UNK> ei
-3.66592 <UNK> eksi
-4.6557 <UNK> ele
-3.9781 <UNK> eli
-4.3702 <UNK> elin
-5.6165 <UNK> elivät
-3.72106 <UNK> ella
-4.58684 <UNK> elli
-5.08314 <UNK> ellyt
-4.09252 <UNK> ellä
-5.04482 <UNK> elo
-5.20755 <UNK> elokuvia
-5.01647 <UNK> elä
-6.31668 <UNK> eläimiin
-4.98581 <UNK> eläin
-5.16025 <UNK> eläke
-6.07619 <UNK> eläkkeestä
-5.83275 <UNK> elämyksiä
-5.00975 <UNK> elämästä
-4.30732 <UNK> emme
-4.28817 <UNK> empi
-2.40823 <UNK> en
-6.08818 <UNK> ennakko
-5.23889 <UNK> ep
-5.64007 <UNK> epä
-4.14384 <UNK> eri
-4.36171 <UNK> erin
-4.39185 <UNK> ero
-4.13474 <UNK> es
-4.35676 <UNK> esi
-7.1431 <UNK> esikois
-5.31101 <UNK> esikunta
-5.6246 <UNK> esimies
-6.64969 <UNK> esittä
-5.14571 <UNK> esitykseen
-3.44739 <UNK> essa
-4.01481 <UNK> essaan
-4.97818 <UNK> est
-3.19127 <UNK> et
-6.74851 <UNK> etelä
-4.88435 <UNK> ette
-3.85121 <UNK> että
-4.59025 <UNK> eu
-5.2905 <UNK> eyn
-4.06032 <UNK> f
-4.77986 <UNK> fe
-4.43732 <UNK> ff
-4.53439 <UNK> fi
-5.11358 <UNK> fil
-4.83002 <UNK> filmi
-5.33516 <UNK> filosofi
-7.57947 <UNK> finanssi
-5.6588 <UNK> fl
-6.08795 <UNK> fla
-6.47095 <UNK> fly
-5.32816 <UNK> foni
-5.59631 <UNK> fuusio
-3.72432 <UNK> g
-4.18645 <UNK> ga
-4.72649 <UNK> gan
-4.61957 <UNK> gen
-4.47323 <UNK> ger
-4.31773 <UNK> go
-6.72969 <UNK> god
-3.68489 <UNK> h
-4.12864 <UNK> ha
-4.71593 <UNK> haa
-6.82984 <UNK> haaska
-6.17256 <UNK> haasta
-5.13608 <UNK> haastattelu
-6.5456 <UNK> haasteen
-4.58288 <UNK> hahmo
-5.14745 <UNK> hai
-5.97781 <UNK> haita
-5.45909 <UNK> hallinnosta
-4.70769 <UNK> hallituksessa
-4.78976 <UNK> ham
-3.62559 <UNK> han
-4.5432 <UNK> hanke
-5.18364 <UNK> hankkeesta
-7.469 <UNK> hapen
-5.23105 <UNK> happo
-4.75517 <UNK> har
-5.30351 <UNK> harja
-5.05109 <UNK> harjoitus
-4.84131 <UNK> harju
-5.11621 <UNK> harjun
-6.54581 <UNK> harki
-5.71718 <UNK> harmaa
-4.83318 <UNK> hdi
-3.98686 <UNK> he
-6.28984 <UNK> hedelmä
-5.61624 <UNK> heinä
-4.90558 <UNK> heit
-5.41926 <UNK> heittä
-4.84217 <UNK> hel
-6.49077 <UNK> heng
-5.39634 <UNK> hengen
-4.78858 <UNK> henkilö
-5.01283 <UNK> henkilöitä
-7.06008 <UNK> hermostu
-5.97201 <UNK> herättävä
-4.02901 <UNK> hi
-5.15975 <UNK> himo
-6.7875 <UNK> hiukka
-5.42973 <UNK> hiukkas
-4.79321 <UNK> hl
-4.15355 <UNK> ho
-5.84866 <UNK> hoh
-4.69551 <UNK> hoi
-5.12447 <UNK> hoido
-4.45325 <UNK> hoitaja
-5.26413 <UNK> hor
-4.93376 <UNK> hr
-4.61992 <UNK> hta
-4.49896 <UNK> hu
-5.05215 <UNK> hui
-6.48131 <UNK> hukan
-5.9362 <UNK> hukka
-5.01621 <UNK> hullu
-6.09589 <UNK> hum
-6.00383 <UNK> humala
-4.45092 <UNK> huolto
-4.97096 <UNK> huu
-6.83025 <UNK> huuda
-5.00107 <UNK> huuto
-5.96253 <UNK> hyl
-6.80821 <UNK> hyväksi
-5.47358 <UNK> hyökkäys
-5.81535 <UNK> hyökkää
-4.81664 <UNK> häiriö
-7.3094 <UNK> hämmästy
-5.9658 <UNK> hämär
-4.73345 <UNK> hö
-2.89144 <UNK> i
-3.11084 <UNK> ia
-4.74503 <UNK> ida
-3.42816 <UNK> iden
-4.68045 <UNK> ie
-4.03876 <UNK> ien
-6.30968 <UNK> iha
-7.0594 <UNK> ihastu
-3.26729 <UNK> ihin
-5.45808 <UNK> ihmiset
-5.61078 <UNK> ihmisten
-3.4047 <UNK> iin
-4.64626 <UNK> ikka
-4.79 <UNK> ikä
-5.3779 <UNK> ikäiset
-4.89306 <UNK> ilaisen
-4.72132 <UNK> ilevat
-3.89658 <UNK> ili
-4.58165 <UNK> ilija
-3.22547 <UNK> illa
-3.12222 <UNK> ille
-3.66052 <UNK> illä
-5.06509 <UNK> ilmoitus
-4.88556 <UNK> ilo
-5.74186 <UNK> ilon
-3.64381 <UNK> ilta
-4.63226 <UNK> im
-2.3575 <UNK> in
-3.63624 <UNK> ina
-3.30565 <UNK> inen
-5.11585 <UNK> intia
-5.31163 <UNK> investoinnit
-5.59114 <UNK> investointeja
-3.64982 <UNK> is
-4.1659 <UNK> isella
-4.6373 <UNK> isellä
-5.21445 <UNK> isemmaksi
-4.97879 <UNK> isemmin
-4.48046 <UNK> isempi
-3.58921 <UNK> isen
-4.33323 <UNK> isena
-3.85579 <UNK> isesti
-3.65657 <UNK> iset
-3.48005 <UNK> isi
-3.72594 <UNK> isia
-3.63582 <UNK> isiin
-4.46192 <UNK> isiksi
-4.62526 <UNK> isina
-4.37588 <UNK> isista
-4.33233 <UNK> isivat
-4.25299 <UNK> isiä
-5.58093 <UNK> iske
-4.68122 <UNK> ismi
-3.06874 <UNK> issa
-3.63508 <UNK> issä
-2.92258 <UNK> ista
-3.82819 <UNK> isten
-4.51321 <UNK> isti
-5.30826 <UNK> istunto
-5.07674 <UNK> istunut
-5.17427 <UNK> istuu
-3.49109 <UNK> istä
-4.64551 <UNK> isuuden
-4.33601 <UNK> isuus
-5.43222 <UNK> isuutensa
-4.42303 <UNK> isuutta
-3.80251 <UNK> it
-3.54691 <UNK> ita
-4.60438 <UNK> itse
-4.22564 <UNK> itten
-3.95173 <UNK> itä
-3.74843 <UNK> iä
-3.86012 <UNK> j
-2.53011 <UNK> ja
-7.24662 <UNK> jakarta
-6.55777 <UNK> jakautunut
-4.93868 <UNK> jakelu
-5.09681 <UNK> jaoston
-2.99232 <UNK> jen
-4.79176 <UNK> jev
-4.59925 <UNK> jilla
-5.12935 <UNK> johta
-4.4109 <UNK> johto
-4.45439 <UNK> joille
-4.31575 <UNK> joki
-4.74577 <UNK> joukon
-6.93001 <UNK> jouni
-4.62222 <UNK> juhla
-5.65627 <UNK> juhli
-5.15262 <UNK> juhlia
-5.52124 <UNK> juhlista
-6.15316 <UNK> jul
-7.02346 <UNK> julki
-6.31677 <UNK> julkis
-4.88435 <UNK> juuri
-3.47584 <UNK> jä
-4.23657 <UNK> järjestelmän
-4.21033 <UNK> järjestö
-5.24706 <UNK> järjestöjä
-4.51457 <UNK> järvellä
-4.27944 <UNK> järvi
-4.7129 <UNK> jäsen
-6.74918 <UNK> jätehuolto
-4.91118 <UNK> jätti
-6.04566 <UNK> jättiläis
-3.35292 <UNK> k
-3.65559 <UNK> ka
-3.32312 <UNK> kaan
-4.80366 <UNK> kaasu
-4.56073 <UNK> kadulla
-5.64162 <UNK> kahvilan
-5.66534 <UNK> kahvilassa
-4.18884 <UNK> kaksitoista
-5.36326 <UNK> kalastuksen
-5.48742 <UNK> kaluston
-5.29371 <UNK> kama
-3.84576 <UNK> kan
-4.75002 <UNK> kanava
-5.16401 <UNK> kanavan
-4.52417 <UNK> kangas
-5.06421 <UNK> kanka
-4.80549 <UNK> kankaan
-5.42788 <UNK> kanna
-6.63566 <UNK> kannatta
-7.72561 <UNK> kannattava
-6.93013 <UNK> kannattavuus
-6.17757 <UNK> kannatus
-5.06161 <UNK> kanne
-5.83283 <UNK> kannel
-5 <UNK> kansa
-5.69059 <UNK> kansalais
-5.31169 <UNK> kansallis
-5.08257 <UNK> kansan
-7.38137 <UNK> kansanvalta
-7.46944 <UNK> kansanäänestys
-7.37851 <UNK> kanssa
-4.25073 <UNK> kanta
-4.80468 <UNK> kantaa
-5.88532 <UNK> karsinnoissa
-4.24517 <UNK> kat
-5.38666 <UNK> katse
-3.83712 <UNK> katu
-4.34637 <UNK> kaudella
-4.5917 <UNK> kaupassa
-5.31433 <UNK> kauppoihin
-4.73436 <UNK> kaupungissa
-3.52403 <UNK> ke
-4.74468 <UNK> keino
-5.52997 <UNK> keittiö
-5.97159 <UNK> keittiön
-5.1065 <UNK> keitä
-5.24004 <UNK> kelin
-4.76166 <UNK> kelpo
-4.43495 <UNK> ker
-5.12187 <UNK> keräys
-5.28078 <UNK> kes
-6.87721 <UNK> keskiviikko
-3.90037 <UNK> keskus
-4.86817 <UNK> keskusta
-4.77718 <UNK> kesä
-5.47161 <UNK> kettu
-6.16771 <UNK> keuhko
-6.39949 <UNK> keula
-3.68921 <UNK> ki
-6.08014 <UNK> kid
-5.21233 <UNK> kiekko
-5.27784 <UNK> kieko
-4.36255 <UNK> kieli
-4.60691 <UNK> kielto
-4.8746 <UNK> kieltä
-6.13027 <UNK> kierrokselta
-4.71149 <UNK> kierros
-6.29001 <UNK> kiewicz
-6.66439 <UNK> kiih
-5.14467 <UNK> kilpailua
-5.35943 <UNK> kilvan
-2.52469 <UNK> kin
-4.50805 <UNK> kirjan
-4.87118 <UNK> kirjasto
-5.05002 <UNK> kisoja
-4.70393 <UNK> kissa
-4.19921 <UNK> kk
-3.69844 <UNK> kka
-4.43878 <UNK> kkaan
-3.90042 <UNK> kki
-3.97846 <UNK> kko
-4.32957 <UNK> kku
-4.21115 <UNK> kkä
-5.32736 <UNK> klubin
-6.13503 <UNK> klusteri
-3.2692 <UNK> ko
-4.96641 <UNK> koe
-4.98953 <UNK> koh
-4.70918 <UNK> kohti
-5.29633 <UNK> koiran
-4.72673 <UNK> koista
-4.475 <UNK> koko
-4.79323 <UNK> kolle
-4.26075 <UNK> kolmetoista
-5.06202 <UNK> komission
-4.68675 <UNK> koneen
-5.56252 <UNK> konferenssin
-5.01045 <UNK> konsertissa
-4.54406 <UNK> konsertti
-4.89356 <UNK> konttori
-4.81633 <UNK> koo
-4.83267 <UNK> kop
-4.87981 <UNK> kortin
-4.76299 <UNK> korva
-4.9601 <UNK> korvaus
-4.90872 <UNK> kos
-6.59447 <UNK> koskela
-5.16688 <UNK> koskelle
-4.37176 <UNK> kosken
-4.19797 <UNK> koski
-6.80821 <UNK> kostea
-6.45225 <UNK> kosto
-4.57167 <UNK> kot
-4.52727 <UNK> koti
-5.79825 <UNK> kotka
-4.39144 <UNK> koulu
-4.42329 <UNK> koulun
-5.80252 <UNK> koulutettu
-4.59091 <UNK> koulutuksen
-4.44415 <UNK> koulutus
-6.56929 <UNK> kriittinen
-3.46089 <UNK> kseen
-4.55576 <UNK> kseksi
-4.74247 <UNK> ksella
-3.97742 <UNK> ksen
-4.85412 <UNK> ksestä
-4.21367 <UNK> kset
-2.73823 <UNK> ksi
-7.02361 <UNK> ktm
-3.7565 <UNK> ku
-4.86341 <UNK> kuitu
-5.68877 <UNK> kukkia
-5.28472 <UNK> kuljetukset
-4.84824 <UNK> kuljetus
-4.54224 <UNK> kulttuuri
-4.62654 <UNK> kulut
-5.27102 <UNK> kunnalta
-4.09908 <UNK> kunnan
-4.1645 <UNK> kunta
-5.46287 <UNK> kuoron
-4.81879 <UNK> kuri
-5.34967 <UNK> kurssien
-5.93915 <UNK> kustannuksiksi
-5.6638 <UNK> kustannuksissa
-4.92545 <UNK> kuuden
-5.54368 <UNK> kuukausi
-3.60632 <UNK> kuusikymmentä
-4.22059 <UNK> kuusitoista
-4.89189 <UNK> kuvi
-4.53662 <UNK> kyky
-5.39729 <UNK> kykynsä
-5.33596 <UNK> kykyyn
-3.40347 <UNK> kymmentäyksi
-4.10799 <UNK> kä
-5.05474 <UNK> kär
-5.2216 <UNK> käsky
-4.9823 <UNK> kät
-5.1415 <UNK> kävely
-4.58591 <UNK> käy
-7.06025 <UNK> käynnis
-6.14876 <UNK> käynnisty
-4.79042 <UNK> käynti
-7.38173 <UNK> käytettä
-7.1431 <UNK> käytety
-7.09914 <UNK> käyttäminen
-4.33631 <UNK> käyttö
-4.9438 <UNK> käytössä
-4.52363 <UNK> kää
-3.52446 <UNK> kään
-6.64989 <UNK> käänteen
-7.09877 <UNK> kääri
-3.74332 <UNK> l
-3.29415 <UNK> la
-4.30575 <UNK> laa
-5.93329 <UNK> laajennus
-4.54973 <UNK> laan
-5.0168 <UNK> laati
-4.60121 <UNK> laatu
-5.10892 <UNK> laboratorio
-4.84754 <UNK> lahja
-4.05375 <UNK> lain
-3.53513 <UNK> lainen
-3.64868 <UNK> laisen
-3.8875 <UNK> laisia
-4.38796 <UNK> laisille
-3.97945 <UNK> laista
-5.11238 <UNK> laitoksesta
-4.74375 <UNK> laiva
-4.99973 <UNK> lakko
-3.64274 <UNK> lan
-5.14651 <UNK> landin
-4.8307 <UNK> lapsi
-4.91498 <UNK> laskun
-4.61477 <UNK> lasta
-5.74563 <UNK> laulujen
-5.84649 <UNK> lausunto
-4.61738 <UNK> lauta
-4.31293 <UNK> lautakunta
-4.57083 <UNK> lee
-4.90663 <UNK> lehdet
-4.34228 <UNK> lehti
-4.72933 <UNK> leiri
-5.44034 <UNK> lenin
-5.62313 <UNK> lenkki
-5.31229 <UNK> lennon
-4.71593 <UNK> lento
-5.80671 <UNK> lentopallo
-5.91956 <UNK> lentopalloilu
-4.57254 <UNK> ler
-5.07676 <UNK> levä
-4.59362 <UNK> ley
-3.90576 <UNK> li
-5.05005 <UNK> liiga
-4.37934 <UNK> liike
-4.38001 <UNK> liikenne
-7.19086 <UNK> liikennöi
-5.87256 <UNK> liiketoiminta
-5.58734 <UNK> liikkeelle
-5.27214 <UNK> liikkeestä
-5.90081 <UNK> liiku
-3.77968 <UNK> liiton
-5.05487 <UNK> liitot
-3.7515 <UNK> liitto
-5.21717 <UNK> lim
-4.04991 <UNK> lin
-5.06124 <UNK> linjat
-5.32536 <UNK> lippua
-4.50776 <UNK> listalla
-4.75957 <UNK> lisä
-5.40813 <UNK> litra
-5.02379 <UNK> lk
-4.01819 <UNK> ll
-2.76977 <UNK> lla
-4.00182 <UNK> llaan
-2.65022 <UNK> lle
-3.98308 <UNK> lleen
-4.85486 <UNK> lleet
-4.41586 <UNK> lliseksi
-4.82317 <UNK> llisella
-5.4835 <UNK> llisellä
-4.59702 <UNK> llisessa
-3.99166 <UNK> llisesti
-5.19964 <UNK> llisestä
-4.61349 <UNK> llisin
-5.3338 <UNK> llisistä
-5.38672 <UNK> llisuutensa
-3.24438 <UNK> llä
-4.46253 <UNK> llään
-4.95409 <UNK> lohko
-5.89521 <UNK> long
-5.46877 <UNK> loppu
-3.18334 <UNK> lta
-3.62144 <UNK> ltä
-4.4949 <UNK> ltään
-4.03972 <UNK> lu
-5.11157 <UNK> lukio
-4.49363 <UNK> luku
-5.38266 <UNK> lukuihin
-4.97249 <UNK> luo
-4.50861 <UNK> luokka
-5.3732 <UNK> luonno
-5.83505 <UNK> luonnon
-5.31166 <UNK> luonnos
-4.86531 <UNK> luonto
-7.38137 <UNK> luopu
-6.85294 <UNK> luottamuksen
-4.53854 <UNK> lupa
-5.16071 <UNK> lupien
-4.37933 <UNK> ly
-6.06837 <UNK> lypsy
-5.77813 <UNK> lyseo
-6.58159 <UNK> lysti
-3.88119 <UNK> lä
-5.58229 <UNK> lähdössä
-5.12984 <UNK> lähetys
-6.25305 <UNK> lähtöön
-4.424 <UNK> län
-6.43387 <UNK> länsi
-3.58895 <UNK> m
-3.43841 <UNK> ma
-3.65128 <UNK> maa
-5.12195 <UNK> maajoukkue
-4.73523 <UNK> maalle
-3.07172 <UNK> maan
-7.7264 <UNK> maanomistajien
-4.63061 <UNK> mahdollisuuksia
-5.58239 <UNK> mahdu
-5.35127 <UNK> mahti
-5.50198 <UNK> maila
-4.65904 <UNK> mainen
-5.34393 <UNK> maini
-5.45717 <UNK> maiseman
-4.70333 <UNK> maista
-5.37405 <UNK> maito
-5.91139 <UNK> makaa
-6.76783 <UNK> makasi
-6.49003 <UNK> make
-6.19256 <UNK> makeis
-5.09854 <UNK> maksa
-3.58287 <UNK> malla
-5.29162 <UNK> mallit
-3.64825 <UNK> man
-4.62583 <UNK> markkinoiden
-6.44181 <UNK> mart
-3.5366 <UNK> massa
-4.0574 <UNK> masta
-4.98643 <UNK> matkoilla
-4.61677 <UNK> matonta
-3.8817 <UNK> matta
-5.00477 <UNK> mattomaksi
-4.65902 <UNK> mattoman
-5.13032 <UNK> mattomuuden
-5.36997 <UNK> mba
-3.79712 <UNK> me
-5.72927 <UNK> melo
-5.65472 <UNK> melu
-4.74815 <UNK> meno
-4.50803 <UNK> mer
-4.81288 <UNK> meri
-4.35388 <UNK> met
-4.76527 <UNK> metsä
-5.12582 <UNK> metsän
-7.14289 <UNK> metsänhoito
-3.92966 <UNK> mi
-3.95438 <UNK> mia
-6.03397 <UNK> mic
-5.36988 <UNK> mie
-4.86917 <UNK> miehistä
-5.50831 <UNK> miehistön
-5.16409 <UNK> miel
-6.45162 <UNK> miele
-4.89614 <UNK> mieli
-6.98968 <UNK> mielipide
-7.19178 <UNK> mielipitei
-3.92769 <UNK> mien
-3.74523 <UNK> mies
-4.07489 <UNK> miin
-4.58378 <UNK> miksi
-6.25937 <UNK> miliisi
-5.26182 <UNK> miljöö
-3.11585 <UNK> minen
-5.39788 <UNK> mini
-4.63803 <UNK> ministerin
-4.09481 <UNK> ministeriö
-3.90545 <UNK> ministeriön
-3.52605 <UNK> mis
-4.21904 <UNK> miselle
-3.32263 <UNK> misen
-3.51551 <UNK> misesta
-4.66412 <UNK> miset
-4.42531 <UNK> missa
-3.36113 <UNK> mista
-3.76118 <UNK> mistä
-4.36517 <UNK> mmaksi
-4.72082 <UNK> mmalla
-4.45326 <UNK> mman
-4.56693 <UNK> mmat
-3.02052 <UNK> mme
-5.40808 <UNK> mmältä
-3.80675 <UNK> mo
-4.23791 <UNK> mpaa
-3.87551 <UNK> mpi
-4.44601 <UNK> mpia
-4.7634 <UNK> muka
-4.49486 <UNK> mur
-5.50612 <UNK> musiikkiin
-5.36474 <UNK> mutta
-5.32889 <UNK> muutoksesta
-4.91503 <UNK> myk
-5.86547 <UNK> myötä
-3.90463 <UNK> mä
-6.33095 <UNK> mädän
-4.0754 <UNK> mäen
-3.88949 <UNK> mäki
-4.70917 <UNK> män
-6.41628 <UNK> männikö
-5.89524 <UNK> mänty
-4.16539 <UNK> mättä
-7.57947 <UNK> mäyrä
-4.79795 <UNK> määri
-3.95723 <UNK> määrä
-6.47161 <UNK> määrätietois
-5.66382 <UNK> määräys
-5.44874 <UNK> määräysten
-4.70982 <UNK> määrää
-4.72812 <UNK> mö
-1.84592 <UNK> n
-2.86307 <UNK> na
-5.16207 <UNK> naama
-5.64884 <UNK> naamio
-5.55422 <UNK> naapuri
-6.14406 <UNK> naapurin
-4.50923 <UNK> nainen
-4.84752 <UNK> naisen
-3.20003 <UNK> ne
-4.06304 <UNK> nee
-4.53321 <UNK> neelle
-3.43492 <UNK> neen
-4.25423 <UNK> neensa
-4.46937 <UNK> neesta
-3.24061 <UNK> neet
-4.78416 <UNK> neisiin
-4.38039 <UNK> neista
-5.17081 <UNK> nell
-3.20241 <UNK> nen
-4.50761 <UNK> ner
-3.1645 <UNK> ni
-4.72475 <UNK> nie
-5.5576 <UNK> niemelle
-4.45173 <UNK> nimi
-5.45529 <UNK> niska
-4.44879 <UNK> nnan
-4.5947 <UNK> nnasta
-3.7987 <UNK> no
-5.15975 <UNK> nope
-5.04267 <UNK> nopeus
-5.0134 <UNK> nor
-6.8762 <UNK> nord
-5.65799 <UNK> nordbanken
-7.38101 <UNK> norja
-6.92988 <UNK> norjalais
-7.469 <UNK> norjalaiset
-5.83072 <UNK> nostettava
-6.74893 <UNK> nostettu
-6.87755 <UNK> noussee
-5.01587 <UNK> nousu
-2.97203 <UNK> nsa
-5.93065 <UNK> nuorison
-6.07228 <UNK> nuotta
-3.30191 <UNK> nut
-3.58237 <UNK> nyt
-6.02084 <UNK> näyttelijöiden
-3.46428 <UNK> o
-5.50307 <UNK> odotukset
-4.94791 <UNK> off
-5.00402 <UNK> ohje
-4.23294 <UNK> ohjelma
-4.65912 <UNK> ohjelmaa
-4.28216 <UNK> ohjelman
-4.50153 <UNK> oiden
-7.46944 <UNK> oikeusministeri
-4.49946 <UNK> oissa
-4.4827 <UNK> oista
-4.9444 <UNK> ojan
-4.93066 <UNK> ol
-4.57155 <UNK> ola
-4.12309 <UNK> oli
-4.0566 <UNK> olla
-4.443 <UNK> olo
-4.43579 <UNK> oma
-6.07589 <UNK> omaisuudesta
-6.13965 <UNK> omavarais
-5.24353 <UNK> omi
-5.48155 <UNK> omilla
-5.43504 <UNK> omista
-4.88035 <UNK> omistaja
-5.29377 <UNK> omistajan
-5.73836 <UNK> omistukseen
-5.3446 <UNK> omistus
-2.59618 <UNK> on
-4.88505 <UNK> ongelmat
-5.26479 <UNK> ongelmiin
-5.24004 <UNK> ooppera
-4.85387 <UNK> opetus
-5.19641 <UNK> opi
-5.04636 <UNK> opiston
-4.42375 <UNK> orkesteri
-4.14502 <UNK> osa
-6.26513 <UNK> osansa
-5.44311 <UNK> osista
-4.2989 <UNK> ossa
-5.49682 <UNK> ossi
-4.81882 <UNK> otta
-4.96428 <UNK> otte
-4.31531 <UNK> otti
-4.56137 <UNK> ov
-4.93607 <UNK> ovin
-3.85708 <UNK> p
-3.73867 <UNK> pa
-5.68237 <UNK> pahan
-4.61604 <UNK> paikalle
-4.45596 <UNK> paikasta
-3.9724 <UNK> paikka
-4.48862 <UNK> paikkojen
-5.12184 <UNK> paikoissa
-4.92449 <UNK> paketin
-4.83017 <UNK> paketti
-5.68896 <UNK> pakosta
-4.54863 <UNK> pala
-5.66098 <UNK> palloilijoiden
-4.50537 <UNK> palo
-4.16807 <UNK> palvelu
-5.47053 <UNK> palveluissa
-4.51945 <UNK> palvelut
-6.10005 <UNK> pam
-5.00978 <UNK> pane
-7.02346 <UNK> pankinjohtaja
-5.18177 <UNK> pankissa
-5.18933 <UNK> pankit
-4.50006 <UNK> pankki
-6.33775 <UNK> pankkiiri
-5.85358 <UNK> pantu
-4.74684 <UNK> paperi
-4.5832 <UNK> par
-4.31555 <UNK> pari
-6.21346 <UNK> parkki
-5.72415 <UNK> parlamentti
-5.33452 <UNK> parta
-4.94209 <UNK> partio
-4.92198 <UNK> pat
-5.30822 <UNK> peleistä
-5.01176 <UNK> pelejä
-4.2535 <UNK> peli
-4.34407 <UNK> per
-4.98416 <UNK> perhe
-4.7988 <UNK> peri
-5.62322 <UNK> periaatetta
-5.33233 <UNK> periaatteen
-4.47985 <UNK> perä
-6.26524 <UNK> pielessä
-5.53671 <UNK> piikki
-4.76489 <UNK> piireissä
-6.20832 <UNK> piirustukset
-5.23497 <UNK> pio
-5.97169 <UNK> pisteellä
-5.81292 <UNK> pisti
-5.52136 <UNK> pitäen
-4.15426 <UNK> po
-4.23072 <UNK> pohja
-4.99283 <UNK> pohjaa
-4.45555 <UNK> poika
-5.06351 <UNK> poikien
-4.73687 <UNK> poliisi
-4.60467 <UNK> poliittinen
-4.68666 <UNK> poliittisen
-5.16121 <UNK> poliittisessa
-4.79516 <UNK> poliittista
-5.07269 <UNK> polku
-5.64713 <UNK> polun
-6.2471 <UNK> ponnistus
-5.28978 <UNK> pop
-6.01707 <UNK> populaatio
-6.06461 <UNK> populisti
-5.34732 <UNK> por
-5.66066 <UNK> poro
-4.9785 <UNK> port
-4.92288 <UNK> porta
-5.25638 <UNK> portin
-5.14885 <UNK> pot
-5.57101 <UNK> potentiaali
-5.68563 <UNK> potilas
-5.9417 <UNK> potilasta
-5.51148 <UNK> potista
-5.83063 <UNK> potki
-5.09318 <UNK> potku
-4.74607 <UNK> pp
-4.27528 <UNK> ppi
-5.00765 <UNK> pr
-5.48856 <UNK> presidentti
-6.80821 <UNK> presidenttinä
-5.30541 <UNK> pri
-4.8389 <UNK> pro
-7.24662 <UNK> propagandisti
-5.69202 <UNK> pros
-4.35879 <UNK> prosentti
-4.97322 <UNK> prosessin
-5.89807 <UNK> proteesi
-7.7264 <UNK> protestoi
-4.74191 <UNK> ps
-6.03118 <UNK> psyko
-3.89757 <UNK> pu
-5.86797 <UNK> puhdistuksen
-4.96308 <UNK> puhe
-5.28761 <UNK> pul
-4.76124 <UNK> puolelle
-4.12868 <UNK> puoli
-4.89621 <UNK> pur
-5.52447 <UNK> purka
-4.98165 <UNK> putken
-4.93291 <UNK> puuta
-5.62885 <UNK> puute
-5.43504 <UNK> pyl
-5.15586 <UNK> päivi
-4.76699 <UNK> päivien
-4.10248 <UNK> päivän
-4.188 <UNK> päivänä
-5.83282 <UNK> pääministeri
-4.54961 <UNK> pään
-5.69712 <UNK> päästöistä
-4.6299 <UNK> päätöksen
-4.80089 <UNK> päätös
-5.27159 <UNK> päätösten
-4.74279 <UNK> que
-3.97095 <UNK> ra
-4.82385 <UNK> rahoitus
-5.98417 <UNK> rahti
-4.90388 <UNK> rai
-5.64879 <UNK> raita
-6.3914 <UNK> raitiovaunu
-4.64621 <UNK> raja
-4.75204 <UNK> rajan
-5.31679 <UNK> rak
-6.52228 <UNK> rakas
-5.97781 <UNK> rakasta
-5.06847 <UNK> raken
-5.56243 <UNK> rakennu
-4.30598 <UNK> rakennus
-6.23581 <UNK> rakennusmestari
-6.53422 <UNK> rakennuttaja
-5.41576 <UNK> rakentamis
-4.75657 <UNK> rakentamisen
-7.14351 <UNK> rakentava
-4.57092 <UNK> rannan
-5.10013 <UNK> rannassa
-4.55148 <UNK> rata
-5.70847 <UNK> rb
-3.58174 <UNK> re
-4.51319 <UNK> reiden
-5.58353 <UNK> rekisterissä
-5.47843 <UNK> remontin
-5.20591 <UNK> reuna
-6.21923 <UNK> reunalla
-3.68697 <UNK> ri
-4.77049 <UNK> ria
-5.38743 <UNK> ries
-4.79689 <UNK> rii
-4.80611 <UNK> rik
-5.38116 <UNK> rikollis
-4.05113 <UNK> rin
-4.79546 <UNK> ring
-4.84502 <UNK> rinta
-4.59256 <UNK> rit
-3.89351 <UNK> ro
-5.53561 <UNK> rockin
-5.9813 <UNK> rohkeutta
-5.02414 <UNK> romaani
-5.89817 <UNK> romahdus
-5.39318 <UNK> romu
-5.14105 <UNK> rooli
-4.09304 <UNK> ru
-5.6204 <UNK> rupea
-4.74209 <UNK> rus
-6.29675 <UNK> rusko
-5.61097 <UNK> ruuan
-6.10461 <UNK> ruuna
-5.2188 <UNK> ruusu
-5.10221 <UNK> ryhmille
-4.68835 <UNK> ryhmiä
-3.97796 <UNK> ryhmä
-4.76064 <UNK> ryhmässä
-7.30637 <UNK> räty
-4.63258 <UNK> rö
-2.73745 <UNK> s
-3.03399 <UNK> sa
-4.13586 <UNK> saa
-5.78213 <UNK> saama
-6.73097 <UNK> saapu
-4.96031 <UNK> saareen
-5.38834 <UNK> saarela
-4.34973 <UNK> saari
-5.707 <UNK> sairauksia
-5.16585 <UNK> sal
-4.63827 <UNK> sali
-6.99012 <UNK> salibandy
-6.92836 <UNK> salli
-4.81772 <UNK> salmi
-4.64361 <UNK> salon
-6.14367 <UNK> sama
-7.57497 <UNK> samalla
-6.62102 <UNK> saman
-4.98774 <UNK> sanoja
-4.51935 <UNK> sarjassa
-5.06421 <UNK> sat
-5.39649 <UNK> sateessa
-6.33095 <UNK> schmitt
-3.3165 <UNK> se
-5.61507 <UNK> seikka
-3.17523 <UNK> seitsemän
-5.1573 <UNK> sektori
-4.25683 <UNK> sella
-4.13742 <UNK> selle
-4.6632 <UNK> selta
-5.14008 <UNK> seminaarissa
-3.02751 <UNK> sen
-4.26079 <UNK> sessa
-4.23732 <UNK> sesta
-5.63731 <UNK> seurakunta
-5.91404 <UNK> sfääri
-4.5354 <UNK> sh
-5.06035 <UNK> sha
-5.39706 <UNK> she
-5.52203 <UNK> sho
-3.06807 <UNK> si
-3.89619 <UNK> sia
-7.14331 <UNK> sianliha
-5.42354 <UNK> sielu
-5.89562 <UNK> sielun
-5.30492 <UNK> sihteerinä
-4.26336 <UNK> siin
-5.39645 <UNK> siirron
-5.22653 <UNK> sila
-4.50594 <UNK> sille
-4.67818 <UNK> sillä
-3.67385 <UNK> sin
-5.65912 <UNK> sini
-6.56951 <UNK> sisustus
-6.48077 <UNK> sisä
-4.7298 <UNK> sit
-7.02346 <UNK> sitkeä
-4.23767 <UNK> ske
-4.17124 <UNK> ski
-5.51902 <UNK> soittaja
-5.73113 <UNK> sopu
-2.60757 <UNK> ssa
-4.56375 <UNK> ssi
-3.21234 <UNK> ssä
-4.12075 <UNK> st
-2.51256 <UNK> sta
-5.26065 <UNK> stelevat
-3.18092 <UNK> sti
-4.09532 <UNK> sto
-6.01996 <UNK> stre
-3.08172 <UNK> stä
-3.99997 <UNK> su
-4.84962 <UNK> suhde
-5.03689 <UNK> suhteista
-5.53685 <UNK> sunnuntai
-4.68205 <UNK> suo
-4.43314 <UNK> suojelu
-5.38033 <UNK> suomalaisia
-5.4926 <UNK> surma
-4.87675 <UNK> suun
-5.47749 <UNK> suunnan
-5.78007 <UNK> suunnat
-5.97134 <UNK> suunnitel
-4.71152 <UNK> suunnittelu
-4.70512 <UNK> suunta
-5.57234 <UNK> suuntaa
-5.62309 <UNK> suur
-4.54909 <UNK> sy
-5.38726 <UNK> syn
-6.13063 <UNK> syntyisi
-6.31699 <UNK> syntymä
-5.55074 <UNK> syty
-5.84173 <UNK> syv
-5.56504 <UNK> syvä
-4.77737 <UNK> syy
-7.46944 <UNK> syyllisyyden
-5.55433 <UNK> syynä
-4.79993 <UNK> syys
-5.41919 <UNK> syyt
-5.27224 <UNK> syyte
-4.86359 <UNK> syö
-5.59386 <UNK> syöksy
-5.56373 <UNK> syöpä
-5.99402 <UNK> syöpään
-5.27226 <UNK> syöttö
-5.54963 <UNK> syöttöä
-3.38876 <UNK> sä
-2.20607 <UNK> t
-2.59007 <UNK> ta
-3.59497 <UNK> taan
-4.25648 <UNK> tai
-4.56401 <UNK> taiteen
-5.15925 <UNK> taiteilijan
-4.80951 <UNK> takaa
-5.84885 <UNK> takaus
-6.33092 <UNK> talletus
-5.09471 <UNK> taloon
-4.69225 <UNK> talous
-4.96985 <UNK> talouteen
-4.98839 <UNK> taloutta
-5.71031 <UNK> tapaamisessa
-5.23957 <UNK> tappion
-5.40555 <UNK> tasapaino
-4.33036 <UNK> tava
-5.80031 <UNK> tavaratalo
-3.52262 <UNK> te
-4.06906 <UNK> tee
-4.58236 <UNK> tehdas
-4.8372 <UNK> teilla
-4.58387 <UNK> teille
-4.61457 <UNK> teillä
-5.10387 <UNK> teineen
-4.90454 <UNK> teissä
-4.55528 <UNK> teitä
-6.31699 <UNK> tekeviä
-4.49641 <UNK> tekniikan
-4.97661 <UNK> teknologian
-5.68092 <UNK> tekstiili
-4.29638 <UNK> tel
-4.06942 <UNK> tele
-5.7456 <UNK> telia
-4.21443 <UNK> tella
-4.61634 <UNK> tellen
-4.50323 <UNK> telu
-5.02698 <UNK> telua
-4.68155 <UNK> tely
-3.12934 <UNK> ten
-4.99191 <UNK> teosta
-4.2883 <UNK> ter
-5.25835 <UNK> terveydenhuoll
-4.08299 <UNK> tetaan
-4.05869 <UNK> tettava
-3.98821 <UNK> tettu
-3.45156 <UNK> ti
-4.5374 <UNK> tia
-5.18675 <UNK> tiedustelu
-6.04209 <UNK> tieteellisiä
-5.66697 <UNK> tietoisuus
-4.06868 <UNK> tiin
-5.41838 <UNK> tiivinen
-4.39963 <UNK> tilaa
-5.32253 <UNK> tilaisuutta
-4.39224 <UNK> tilan
-5.0878 <UNK> tiloihin
-3.69726 <UNK> tin
-4.85204 <UNK> tivät
-3.67094 <UNK> to
-4.25254 <UNK> toiminnan
-4.90738 <UNK> toiminnassa
-4.41043 <UNK> toimintaa
-5.58207 <UNK> toimintoja
-5.6548 <UNK> tointa
-5.16688 <UNK> toni
-5.62301 <UNK> top
-4.66603 <UNK> tor
-4.54853 <UNK> tori
-5.05711 <UNK> torjunta
-4.93776 <UNK> torni
-6.11733 <UNK> torpan
-5.47263 <UNK> torppa
-5.74526 <UNK> tosi
-5.10303 <UNK> tot
-6.63553 <UNK> toteu
-6.44309 <UNK> toteutus
-5.68728 <UNK> toto
-6.30324 <UNK> totta
-4.89307 <UNK> toverei
-4.92419 <UNK> tri
-4.91515 <UNK> tro
-6.32385 <UNK> troolari
-3.35487 <UNK> tta
-4.36339 <UNK> ttaessa
-4.3343 <UNK> ttaisi
-4.42403 <UNK> ttamista
-4.39603 <UNK> ttavia
-4.74136 <UNK> ttavien
-4.95643 <UNK> ttaviksi
-4.50028 <UNK> tteja
-4.19422 <UNK> ttelee
-4.50406 <UNK> ttelu
-3.41594 <UNK> tti
-4.55945 <UNK> ttivat
-4.39909 <UNK> ttomia
-4.79761 <UNK> ttomien
-5.0489 <UNK> ttomiksi
-3.53649 <UNK> ttu
-4.2107 <UNK> ttua
-4.01219 <UNK> tty
-3.87135 <UNK> ttä
-4.69621 <UNK> ttäjä
-4.67841 <UNK> ttämisestä
-4.1316 <UNK> ttävä
-3.57188 <UNK> tu
-5.75506 <UNK> tuhanteenyhdeks
-4.97139 <UNK> tuhat
-6.90233 <UNK> tuhatkuusisataa
-6.95781 <UNK> tuhatneljäsataa
-4.964 <UNK> tuille
-6.30309 <UNK> tuke
-7.46944 <UNK> tukeva
-7.72719 <UNK> tukholma
-4.31513 <UNK> tuki
-5.17626 <UNK> tukia
-5.0273 <UNK> tukka
-4.02398 <UNK> tuksen
-4.21115 <UNK> tuksia
-5.53782 <UNK> tul
-5.14514 <UNK> tule
-6.10854 <UNK> tulehduksi
-5.77394 <UNK> tulehdus
-6.3036 <UNK> tulevaisuuteen
-4.68484 <UNK> tuli
-4.71664 <UNK> tulle
-5.19189 <UNK> tulli
-4.52103 <UNK> tuminen
-4.95562 <UNK> tumisesta
-3.8167 <UNK> tun
-5.15349 <UNK> tunne
-5.07432 <UNK> tuotannossa
-5.62315 <UNK> tuotetta
-4.70158 <UNK> tutkija
-3.74025 <UNK> ty
-4.97418 <UNK> tyivät
-4.35932 <UNK> tyksen
-4.84343 <UNK> tyneet
-4.1483 <UNK> tys
-5.17916 <UNK> tytön
-5.53445 <UNK> tyyliä
-4.85119 <UNK> työryhmä
-3.06797 <UNK> tä
-5.43231 <UNK> täh
-4.67606 <UNK> tämään
-4.95624 <UNK> täviä
-3.43802 <UNK> u
-5.17234 <UNK> udutaan
-5.32887 <UNK> uduttava
-5.37388 <UNK> ukko
-4.11396 <UNK> ukseen
-4.68739 <UNK> ukselle
-4.38229 <UNK> uksessa
-4.17975 <UNK> ukset
-4.1967 <UNK> uksiin
-4.37372 <UNK> uksissa
-4.3649 <UNK> um
-3.36394 <UNK> un
-5.38508 <UNK> urakoi
-3.46091 <UNK> us
-6.1441 <UNK> uskoi
-4.93019 <UNK> utettu
-5.11328 <UNK> uttanut
-4.01851 <UNK> utu
-4.38591 <UNK> utuminen
-4.9503 <UNK> utumisesta
-4.61555 <UNK> utumista
-4.83096 <UNK> utuneita
-3.86039 <UNK> uuden
-4.14209 <UNK> uudesta
-4.77388 <UNK> uudet
-5.48753 <UNK> uudistuksessa
-5.40223 <UNK> uudistuksesta
-4.74615 <UNK> uudistus
-3.84974 <UNK> uus
-3.90413 <UNK> uutta
-3.74911 <UNK> v
-3.30554 <UNK> va
-3.89277 <UNK> vaa
-4.19219 <UNK> vaan
-4.29528 <UNK> vaara
-4.48103 <UNK> vaaran
-5.18268 <UNK> vaate
-6.04586 <UNK> vaatimuksensa
-5.31158 <UNK> vaihdosta
-4.82248 <UNK> vaiheen
-5.70505 <UNK> vaihtoehdon
-5.01037 <UNK> vaikut
-5.09312 <UNK> vaikutus
-5.10024 <UNK> vakuutusmaksu
-4.65437 <UNK> val
-5.73113 <UNK> vallassa
-4.11815 <UNK> valta
-5.29507 <UNK> valtuuskunnan
-5.52774 <UNK> valvontaa
-3.41396 <UNK> van
-4.6113 <UNK> vana
-6.2905 <UNK> vantaan
-5.01724 <UNK> vapaa
-6.83035 <UNK> vapaaehtois
-4.47678 <UNK> vara
-5.67007 <UNK> varas
-5.94488 <UNK> varasta
-4.63199 <UNK> varasto
-6.13499 <UNK> varastoi
-6.80821 <UNK> varmuudella
-5.62448 <UNK> varo
-5.53565 <UNK> varoi
-5.37562 <UNK> varoilla
-6.02778 <UNK> varpa
-4.11231 <UNK> vasta
-5.6444 <UNK> vastaan
-7.0997 <UNK> vastaanottaja
-6.02099 <UNK> vastaanotti
-5.59639 <UNK> vastaanotto
-7.72879 <UNK> vastakkain
-6.63508 <UNK> vastuita
-4.56075 <UNK> vastuu
-2.84626 <UNK> vat
-4.97414 <UNK> vauhti
-4.55611 <UNK> vaunu
-7.14372 <UNK> vaurioitu
-3.85877 <UNK> ve
-5.12837 <UNK> ved
-4.57861 <UNK> veden
-5.23325 <UNK> vedet
-6.87721 <UNK> vedetty
-6.74918 <UNK> vedettävä
-5.37875 <UNK> vedon
-5.6456 <UNK> veh
-6.65029 <UNK> vehnäjauho
-5.91139 <UNK> veikka
-5.24193 <UNK> veikkaus
-5.65484 <UNK> veikko
-5.1285 <UNK> velan
-4.47128 <UNK> ven
-5.3579 <UNK> veneiden
-4.94818 <UNK> veri
-4.8816 <UNK> verta
-4.30146 <UNK> vesi
-5.46288 <UNK> vesillä
-3.62362 <UNK> vien
-5.10437 <UNK> vienti
-2.99245 <UNK> viisi
-3.31172 <UNK> viisikymmentä
-3.64033 <UNK> viisisataa
-4.36204 <UNK> viiva
-4.39883 <UNK> viksi
-3.94242 <UNK> ville
-4.72342 <UNK> villä
-3.98457 <UNK> vin
-4.61347 <UNK> vina
-4.51831 <UNK> viraston
-5.28917 <UNK> visa
-7.38137 <UNK> visiiri
-4.38517 <UNK> vissa
-4.19579 <UNK> vo
-3.97948 <UNK> voi
-5.71052 <UNK> voittavat
-4.97132 <UNK> vol
-4.50667 <UNK> vuoren
-4.66626 <UNK> vuosien
-4.53207 <UNK> vy
-4.86125 <UNK> vyys
-3.84621 <UNK> vä
-6.7135 <UNK> väitä
-5.32447 <UNK> väl
-5.76831 <UNK> välinen
-5.62475 <UNK> välittäjien
-3.26555 <UNK> vät
-4.46825 <UNK> w
-4.63423 <UNK> wa
-5.63157 <UNK> ward
-4.99615 <UNK> well
-7.0997 <UNK> white
-4.89212 <UNK> wi
-6.58159 <UNK> wil
-6.00383 <UNK> wind
-5.61194 <UNK> wo
-6.51222 <UNK> wolf
-5.03154 <UNK> wood
-3.66318 <UNK> y
-4.69899 <UNK> yde
-5.1555 <UNK> ydin
-7.38245 <UNK> ydinase
-4.8864 <UNK> ydy
-3.26345 <UNK> yhdeksän
-4.35394 <UNK> yhdeksäntuhatta
-4.30998 <UNK> yhdeksäs
-5.0659 <UNK> yhden
-7.469 <UNK> yhdestä
-4.25784 <UNK> yhdistyksen
-4.38356 <UNK> yhdistys
-5.94166 <UNK> yhteen
-5.50716 <UNK> yhteis
-5.00374 <UNK> yhteiskunta
-7.469 <UNK> yhteistoiminta
-4.65825 <UNK> yhteistyö
-4.74556 <UNK> yhteisö
-7.72799 <UNK> yhtenäis
-4.10069 <UNK> yhtiö
-4.61268 <UNK> yhtiöt
-3.04245 <UNK> yksi
-4.24083 <UNK> yksitoista
-5.06736 <UNK> yleisö
-5.48444 <UNK> yleisöä
-5.08407 <UNK> yli
-3.80678 <UNK> yn
-5.07983 <UNK> yri
-5.5008 <UNK> yrityksiin
-5.33876 <UNK> yrityksille
-4.19938 <UNK> ys
-4.37164 <UNK> yty
-5.48457 <UNK> yytensä
-4.09555 <UNK> z
-2.58378 <UNK> ä
-3.06663 <UNK> än
-3.8359 <UNK> ään
-5.994 <UNK> äänestystä
-4.11231 <UNK> ö
-5.0826 <UNK> öö
-0.141937 <w> <UNK>
-1.08478 <w> </s>
-2.79835 <w> a
-5.54582 <w> aan
-4.83073 <w> aar
-5.47288 <w> aavistus
-4.19255 <w> ah
-4.42546 <w> ahti
-3.28327 <w> aika
-3.44351 <w> aikaa
-4.19777 <w> aikuis
-4.8654 <w> aila
-5.24095 <w> aiottu
-5.33817 <w> airisto
-4.54575 <w> aisti
-4.60955 <w> aita
-4.29584 <w> aivo
-3.25414 <w> ajan
-5.0314 <w> ajanjakso
-5.29153 <w> aktiivisuutta
-3.85655 <w> al
-3.50276 <w> ala
-4.59866 <w> aloite
-4.8176 <w> aloitte
-3.62869 <w> alueella
-3.68002 <w> alusta
-3.58118 <w> ammatti
-5.08289 <w> ammenta
-4.37426 <w> ampuma
-4.93681 <w> amsterdam
-3.44717 <w> an
-5.68132 <w> analyytiko
-4.20499 <w> and
-4.51475 <w> andre
-3.82298 <w> anna
-4.07625 <w> anne
-4.72675 <w> anni
-5.16823 <w> anniskelu
-4.69771 <w> ano
-4.90218 <w> ansa
-4.65181 <w> anssi
-4.28073 <w> anti
-4.17204 <w> apulais
-3.86423 <w> ari
-4.16469 <w> as
-4.79364 <w> aseen
-5.17409 <w> asemat
-5.59008 <w> asettelu
-4.90902 <w> asiakkaista
-5.14891 <w> assa
-5.07298 <w> asta
-4.28849 <w> ava
-4.52679 <w> avaruus
-4.08258 <w> avaus
-4.12093 <w> avo
-4.29303 <w> avustus
-3.80867 <w> b
-3.93123 <w> ba
-4.90371 <w> bag
-5.56212 <w> bahama
-5.20789 <w> baijeri
-4.46212 <w> bal
-4.74465 <w> baletti
-5.3104 <w> balladi
-3.98394 <w> bar
-4.46045 <w> berg
-5.39354 <w> bergin
-4.29686 <w> bi
-4.85867 <w> bis
-5.26762 <w> brass
-4.72471 <w> by
-5.32399 <w> bäck
-3.71359 <w> c
-4.46325 <w> ce
-4.55787 <w> ch
-4.6583 <w> che
-4.61132 <w> chi
-4.67675 <w> chris
-4.53583 <w> christian
-5.05185 <w> christie
-5.70536 <w> chydenius
-4.45582 <w> ci
-4.43712 <w> city
-5.18106 <w> citymarket
-3.96668 <w> co
-4.78272 <w> com
-4.35639 <w> con
-4.38763 <w> cor
-4.70605 <w> cr
-5.73322 <w> cz
-4.06499 <w> da
-4.49236 <w> dan
-3.57103 <w> de
-4.54869 <w> den
-4.5996 <w> der
-3.96345 <w> di
-4.516 <w> dia
-4.10601 <w> do
-4.45195 <w> don
-5.29265 <w> donna
-4.83749 <w> dor
-5.12079 <w> down
-4.12473 <w> du
-4.8917 <w> dun
-4.83883 <w> dy
-6.06224 <w> dä
-3.61878 <w> e
-4.37707 <w> ed
-4.83361 <w> ee
-5.49655 <w> een
-4.41541 <w> eh
-4.03925 <w> ehti
-2.11258 <w> ei
-5.44924 <w> eksi
-4.37762 <w> ele
-3.0521 <w> eli
-4.13737 <w> elin
-5.32588 <w> elivät
-5.27952 <w> ella
-4.89281 <w> elli
-6.1529 <w> ellä
-4.17259 <w> elo
-4.70059 <w> elokuvia
-4.02179 <w> elä
-5.58783 <w> eläimiin
-4.12301 <w> eläin
-3.93916 <w> eläke
-5.73686 <w> eläkkeestä
-4.93876 <w> elämyksiä
-4.43899 <w> elämästä
-3.78897 <w> emme
-5.01625 <w> empi
-5.6883 <w> emännöi
-3.15414 <w> en
-4.09785 <w> ennakko
-4.89528 <w> ep
-3.54591 <w> epä
-4.7415 <w> epätoivo
-3.12517 <w> eri
-4.73156 <w> erin
-3.83379 <w> ero
-4.13283 <w> es
-3.73435 <w> esi
-5.62363 <w> esiintyneen
-4.62065 <w> esikois
-4.97824 <w> esikunta
-4.91886 <w> esimies
-4.58317 <w> esittä
-4.74337 <w> esitykseen
-6.16088 <w> essa
-4.84167 <w> est
-3.89331 <w> et
-3.45977 <w> etelä
-4.77689 <w> ette
-2.12818 <w> että
-3.33218 <w> eu
-4.47347 <w> eyn
-3.82374 <w> f
-4.37828 <w> fe
-5.59377 <w> ff
-4.08203 <w> fi
-4.37565 <w> fil
-4.32328 <w> filmi
-4.54473 <w> filosofi
-4.71967 <w> finanssi
-4.59041 <w> fl
-4.76947 <w> fla
-4.99121 <w> fly
-5.73203 <w> foni
-4.34312 <w> fuusio
-3.81487 <w> g
-4.01624 <w> ga
-5.04426 <w> gan
-4.5711 <w> gen
-4.52652 <w> ger
-4.25256 <w> go
-4.90533 <w> god
-3.82658 <w> h
-3.53343 <w> ha
-4.20671 <w> haa
-5.28766 <w> haaska
-4.58957 <w> haasta
-4.262 <w> haastattelu
-4.93952 <w> haasteen
-4.12589 <w> hahmo
-4.2584 <w> hai
-4.62749 <w> haita
-5.29712 <w> hallinnosta
-4.24812 <w> hallituksessa
-4.58862 <w> ham
-4.00793 <w> han
-4.0787 <w> hanke
-4.81065 <w> hankkeesta
-5.20696 <w> hapen
-5.31327 <w> happo
-4.01819 <w> har
-4.55466 <w> harja
-4.92247 <w> harjoittama
-4.1272 <w> harjoitus
-4.54311 <w> harju
-5.00479 <w> harjun
-5.02018 <w> harki
-5.1729 <w> harkinnanvarais
-4.4959 <w> harmaa
-6.80656 <w> hdi
-3.05391 <w> he
-4.46331 <w> hedelmä
-4.29118 <w> heinä
-4.63493 <w> heit
-4.61167 <w> heittä
-4.0141 <w> hel
-5.2444 <w> heng
-4.09342 <w> hengen
-3.76185 <w> henkilö
-4.59469 <w> henkilöitä
-4.66801 <w> hermostu
-5.13697 <w> herättävä
-3.84823 <w> hi
-4.81702 <w> himo
-5.36183 <w> hiukka
-4.93504 <w> hiukkas
-5.20252 <w> hl
-3.92878 <w> ho
-4.82689 <w> hoh
-4.22155 <w> hoi
-5.01502 <w> hoido
-4.69076 <w> hoitaja
-4.31159 <w> hor
-5.08933 <w> hr
-6.84387 <w> hta
-3.86594 <w> hu
-4.08778 <w> hui
-5.26184 <w> hukan
-4.65839 <w> hukka
-4.41418 <w> hullu
-4.78539 <w> hum
-4.7889 <w> humala
-4.17119 <w> huolto
-4.30808 <w> huu
-5.18937 <w> huuda
-4.58799 <w> huuto
-4.74847 <w> hyl
-3.91752 <w> hyväksi
-4.35779 <w> hyökkäys
-4.82519 <w> hyökkää
-5.62005 <w> hyökännyt
-4.70301 <w> häiriö
-5.18761 <w> hämmentävä
-4.55592 <w> hämmästy
-4.77986 <w> hämär
-4.50127 <w> hö
-3.71445 <w> i
-5.15814 <w> ia
-5.21465 <w> ida
-5.07197 <w> iden
-5.63432 <w> ie
-5.8179 <w> ien
-4.66614 <w> iha
-4.55633 <w> ihastu
-6.58327 <w> ihin
-3.62925 <w> ihmiset
-3.73684 <w> ihmisten
-4.79139 <w> iin
-6.95634 <w> ikka
-3.89794 <w> ikä
-5.12606 <w> ikäiset
-5.13574 <w> ili
-6.69212 <w> ilija
-4.52162 <w> illa
-5.40803 <w> ille
-6.18035 <w> illä
-4.47321 <w> ilmoitus
-3.93212 <w> ilo
-4.91441 <w> iloitsi
-4.52001 <w> ilon
-3.72557 <w> ilta
-4.41794 <w> im
-3.50187 <w> in
-5.55634 <w> ina
-6.12122 <w> inen
-4.35074 <w> intia
-4.60081 <w> investoinnit
-4.70332 <w> investointeja
-4.22268 <w> is
-6.17031 <w> isen
-6.79515 <w> isesti
-6.57104 <w> iset
-4.94534 <w> isi
-7.08331 <w> isia
-6.38302 <w> isiin
-6.85244 <w> isiksi
-5.58833 <w> isiä
-4.56159 <w> iske
-6.26358 <w> ismi
-5.43089 <w> issa
-6.33418 <w> issä
-5.22656 <w> ista
-6.70708 <w> isten
-6.66523 <w> isti
-4.71266 <w> istunto
-4.81347 <w> istunut
-4.39397 <w> istuu
-6.27099 <w> istä
-4.44137 <w> it
-5.62024 <w> ita
-3.11315 <w> itse
-5.96112 <w> itten
-3.42439 <w> itä
-4.78987 <w> iä
-4.13827 <w> j
-1.56911 <w> ja
-5.16866 <w> jakarta
-5.43626 <w> jakautunut
-4.449 <w> jakelu
-5.43675 <w> jaoston
-4.25126 <w> jen
-5.51212 <w> jev
-4.45352 <w> johta
-3.73351 <w> johto
-4.42069 <w> joille
-4.08014 <w> joki
-4.51462 <w> joukon
-4.17744 <w> jouni
-3.80034 <w> juhla
-4.31366 <w> juhli
-4.83285 <w> juhlia
-4.95339 <w> juhlista
-4.93703 <w> jul
-4.6263 <w> julki
-4.27431 <w> julkis
-3.25561 <w> juuri
-4.00872 <w> jä
-4.43744 <w> järjestelmän
-4.08743 <w> järjestö
-5.2046 <w> järjestöjä
-5.45155 <w> järvellä
-4.1043 <w> järvi
-3.70084 <w> jäsen
-4.85017 <w> jätehuolto
-3.9569 <w> jätti
-4.82403 <w> jättiläis
-3.3517 <w> k
-3.39779 <w> ka
-5.43939 <w> kaan
-4.21458 <w> kaasu
-4.74281 <w> kadulla
-5.15944 <w> kahvilan
-5.20598 <w> kahvilassa
-3.20704 <w> kaksitoista
-5.03849 <w> kalastuksen
-5.14398 <w> kaluston
-5.28314 <w> kama
-3.88788 <w> kan
-4.35901 <w> kanava
-4.66665 <w> kanavan
-4.31081 <w> kangas
-4.79626 <w> kanka
-4.84602 <w> kankaan
-4.50274 <w> kanna
-4.40062 <w> kannatta
-4.71416 <w> kannattava
-4.81443 <w> kannattavuus
-4.36921 <w> kannatus
-4.59121 <w> kanne
-5.02377 <w> kannel
-3.95643 <w> kansa
-3.94904 <w> kansalais
-3.81941 <w> kansallis
-3.55253 <w> kansan
-4.90329 <w> kansaneläke
-5.11333 <w> kansanvalta
-4.69846 <w> kansanäänestys
-2.88987 <w> kanssa
-3.78144 <w> kanta
-3.89106 <w> kantaa
-5.34569 <w> karsinnoissa
-4.01235 <w> kat
-4.42296 <w> katse
-4.00639 <w> katu
-3.9673 <w> kaudella
-4.62891 <w> kaupassa
-5.08665 <w> kauppoihin
-4.1331 <w> kaupungissa
-3.63577 <w> ke
-4.07229 <w> keino
-4.52851 <w> keittiö
-4.84712 <w> keittiön
-4.86247 <w> keitä
-5.46089 <w> kelin
-4.91997 <w> kelpo
-4.22153 <w> ker
-4.60469 <w> keräys
-4.72549 <w> kes
-5.00086 <w> keskiverto
-4.24621 <w> keskiviikko
-3.70954 <w> keskus
-3.90009 <w> keskusta
-3.56417 <w> kesä
-4.16787 <w> kesäkuussa
-4.70318 <w> kettu
-4.60598 <w> keuhko
-4.51121 <w> keula
-3.68195 <w> ki
-4.87709 <w> kid
-4.09467 <w> kiekko
-5.21386 <w> kieko
-3.91276 <w> kieli
-4.70214 <w> kielto
-4.10035 <w> kieltä
-5.55785 <w> kierrokselta
-4.31688 <w> kierros
-4.58647 <w> kiih
-4.32965 <w> kilpailua
-4.97227 <w> kilvan
-4.13088 <w> kin
-3.96513 <w> kirjan
-4.08996 <w> kirjasto
-4.5261 <w> kisoja
-4.55381 <w> kissa
-4.73693 <w> kk
-6.69834 <w> kka
-6.12688 <w> kki
-5.15262 <w> kko
-6.78332 <w> kku
-7.14365 <w> kkä
-4.97439 <w> klubin
-5.91568 <w> klusteri
-3.42038 <w> ko
-3.91391 <w> koe
-4.05546 <w> koh
-3.68625 <w> kohti
-4.45102 <w> koiran
-7.41426 <w> koista
-2.9281 <w> koko
-4.91781 <w> kolle
-3.29712 <w> kolmetoista
-4.00997 <w> komission
-4.3732 <w> koneen
-4.90854 <w> konferenssin
-4.56926 <w> konsertissa
-3.98643 <w> konsertti
-4.44301 <w> konttori
-4.26338 <w> koo
-4.31105 <w> kop
-4.7489 <w> kortin
-4.05935 <w> korva
-4.35505 <w> korvaus
-4.5162 <w> kos
-4.71772 <w> koskela
-6.22355 <w> koskelle
-4.5905 <w> kosken
-4.892 <w> koskettava
-4.13215 <w> koski
-4.99403 <w> kostea
-4.66615 <w> kosto
-4.72684 <w> kot
-3.34608 <w> koti
-4.87069 <w> kotimaisia
-4.32366 <w> kotka
-3.40738 <w> koulu
-3.85533 <w> koulun
-4.61437 <w> koulutettu
-4.15259 <w> koulutuksen
-3.71436 <w> koulutus
-4.97798 <w> kriittinen
-6.92566 <w> kseen
-6.17129 <w> ksen
-7.14308 <w> kset
-5.75139 <w> ksi
-4.77832 <w> ktm
-3.64943 <w> ku
-4.72279 <w> kuitu
-4.91272 <w> kukkia
-5.11735 <w> kuljetukset
-4.21744 <w> kuljetus
-3.45618 <w> kulttuuri
-4.60581 <w> kulut
-5.18711 <w> kunnalta
-3.57141 <w> kunnan
-3.67666 <w> kunta
-4.7826 <w> kuoron
-4.42605 <w> kuri
-5.10661 <w> kurssien
-5.73686 <w> kustannuksiksi
-5.7879 <w> kustannuksissa
-4.02187 <w> kuuden
-4.19141 <w> kuukausi
-3.15542 <w> kuusikymmentä
-3.2802 <w> kuusitoista
-4.37917 <w> kuvi
-4.59636 <w> kyky
-5.31388 <w> kykynsä
-5.35394 <w> kykyyn
-4.08338 <w> kä
-4.31718 <w> kär
-4.53064 <w> käsky
-4.88838 <w> kät
-4.29804 <w> kävely
-3.51743 <w> käy
-5.21486 <w> käynnis
-4.58328 <w> käynnisty
-4.64896 <w> käynti
-5.02289 <w> käytettä
-5.13423 <w> käytety
-5.12119 <w> käyttäminen
-3.70483 <w> käyttö
-4.03075 <w> käytössä
-5.01374 <w> kää
-4.40778 <w> kään
-5.27134 <w> käänteen
-4.87153 <w> kääri
-3.95849 <w> l
-3.34984 <w> la
-4.04574 <w> laa
-5.00954 <w> laajenne
-4.52163 <w> laajennus
-4.91394 <w> laajentumis
-5.529 <w> laajentumisesta
-4.90798 <w> laan
-4.2739 <w> laati
-4.07988 <w> laatu
-4.53697 <w> laboratorio
-4.24524 <w> lahja
-3.80637 <w> lain
-6.04851 <w> lainen
-6.22895 <w> laisen
-6.59442 <w> laisia
-7.12479 <w> laisille
-5.22128 <w> laista
-5.49174 <w> laitoksesta
-4.18637 <w> laiva
-4.14268 <w> lakko
-4.22461 <w> lan
-6.59189 <w> landin
-3.81116 <w> lapsi
-4.68149 <w> laskun
-4.12549 <w> lasta
-5.03663 <w> laulujen
-4.54867 <w> lausunto
-4.3205 <w> lauta
-4.37798 <w> lautakunta
-4.52226 <w> lee
-4.56786 <w> lehdet
-3.76166 <w> lehti
-4.26534 <w> leiri
-4.76193 <w> lenin
-4.75621 <w> lenkki
-4.64822 <w> lennon
-3.91211 <w> lento
-4.53494 <w> lentopallo
-4.97338 <w> lentopalloilu
-5.3708 <w> ler
-4.58513 <w> levä
-5.69592 <w> ley
-3.74266 <w> li
-4.00971 <w> liiga
-3.64861 <w> liike
-3.62742 <w> liikenne
-4.7732 <w> liikennöi
-4.78731 <w> liiketoiminta
-4.10799 <w> liikkeelle
-5.21098 <w> liikkeestä
-4.46774 <w> liiku
-3.78033 <w> liiton
-4.92916 <w> liitot
-3.62274 <w> liitto
-4.80516 <w> lim
-4.20333 <w> lin
-5.15895 <w> linjat
-4.99007 <w> lippua
-4.53062 <w> listalla
-3.50015 <w> lisä
-4.69788 <w> litra
-4.96112 <w> lk
-5.02254 <w> ll
-5.60288 <w> lla
-7.157 <w> llaan
-5.52606 <w> lle
-6.98438 <w> lleen
-7.13988 <w> llisesti
-6.21962 <w> llä
-7.4918 <w> llään
-4.21495 <w> lohko
-5.133 <w> long
-3.51487 <w> loppu
-6.29702 <w> lta
-6.86985 <w> ltä
-3.64055 <w> lu
-4.21043 <w> lukio
-3.88546 <w> luku
-5.22186 <w> lukuihin
-3.77522 <w> luo
-4.34159 <w> luokka
-4.51652 <w> luonno
-3.73339 <w> luonnon
-5.01598 <w> luonnos
-3.94551 <w> luonto
-4.56297 <w> luopu
-4.80722 <w> luottamuksen
-4.03572 <w> lupa
-5.36305 <w> lupien
-4.23936 <w> ly
-5.16402 <w> lypsy
-5.21204 <w> lyseo
-5.23254 <w> lysti
-4.05427 <w> lä
-4.84096 <w> lähdetty
-4.54545 <w> lähdössä
-4.42077 <w> lähetys
-5.15168 <w> lähtöön
-4.52635 <w> län
-3.68012 <w> länsi
-3.76442 <w> m
-3.41991 <w> ma
-3.42613 <w> maa
-4.33762 <w> maajoukkue
-4.67967 <w> maalle
-3.23331 <w> maan
-5.16739 <w> maanomistajien
-3.97339 <w> mahdollisuuksia
-4.82614 <w> mahdu
-4.74306 <w> mahti
-4.53917 <w> maila
-6.18773 <w> mainen
-4.69532 <w> maini
-4.96011 <w> maiseman
-4.36164 <w> maista
-4.23037 <w> maito
-4.80157 <w> major
-4.80229 <w> makaa
-5.11968 <w> makasi
-4.94854 <w> make
-4.98564 <w> makeis
-4.70712 <w> makkonen
-4.03922 <w> maksa
-4.10994 <w> maksamaan
-5.09696 <w> malla
-5.10947 <w> mallit
-3.95827 <w> man
-4.52857 <w> markkinoiden
-4.59067 <w> mart
-4.39015 <w> massa
-6.89881 <w> masta
-4.53944 <w> matkoilla
-5.62398 <w> matta
-5.66075 <w> mba
-3.25257 <w> me
-4.85954 <w> melo
-4.44333 <w> melu
-4.15479 <w> meno
-4.41155 <w> mer
-3.7661 <w> meri
-4.59563 <w> met
-3.46243 <w> metsä
-4.26752 <w> metsän
-4.67702 <w> metsänhoito
-5.0636 <w> metsäpalo
-3.97276 <w> mi
-4.85609 <w> mia
-5.03161 <w> mic
-4.29957 <w> mie
-4.6142 <w> miehistä
-4.94 <w> miehistön
-4.97633 <w> miel
-4.56874 <w> miele
-5.18805 <w> mielekkää
-3.93747 <w> mieli
-4.1852 <w> mielipide
-5.05703 <w> mielipitei
-6.77613 <w> mien
-3.33972 <w> mies
-4.52171 <w> miin
-3.68155 <w> miksi
-5.13151 <w> miliisi
-4.91248 <w> miljöö
-6.37856 <w> minen
-4.45019 <w> mini
-4.57309 <w> ministerin
-4.41836 <w> ministeriö
-4.4357 <w> ministeriön
-4.64971 <w> mis
-7.05198 <w> misen
-7.38563 <w> misesta
-5.76486 <w> missa
-6.59394 <w> mista
-3.80955 <w> mistä
-7.34516 <w> mman
-6.35437 <w> mme
-3.71559 <w> mo
-7.33978 <w> mpaa
-6.54544 <w> mpi
-4.22577 <w> muka
-4.0443 <w> mur
-4.854 <w> musiikkiin
-2.44243 <w> mutta
-4.97525 <w> muutoksesta
-5.07429 <w> myk
-3.71452 <w> myötä
-5.09803 <w> myötätunto
-3.9698 <w> mä
-5.62363 <w> mädän
-4.77097 <w> mäen
-4.73977 <w> mäkelän
-4.0307 <w> mäki
-4.91503 <w> män
-5.59007 <w> männikö
-4.33352 <w> mänty
-5.46167 <w> mättä
-5.50093 <w> mäyrä
-4.54579 <w> määri
-3.31415 <w> määrä
-5.10198 <w> määrätietois
-4.963 <w> määräys
-5.09903 <w> määräysten
-3.98016 <w> määrää
-4.3847 <w> mö
-3.23802 <w> n
-3.56343 <w> na
-4.71249 <w> naama
-4.97876 <w> naamio
-3.97908 <w> naapuri
-4.71018 <w> naapurin
-3.85858 <w> nainen
-4.01829 <w> naisen
-2.99252 <w> ne
-5.41575 <w> nee
-6.76667 <w> neen
-6.52273 <w> neet
-5.77562 <w> nell
-4.48057 <w> nen
-5.2356 <w> ner
-3.78244 <w> ni
-4.78164 <w> nie
-6.03636 <w> niemelle
-3.63895 <w> nimi
-4.40234 <w> niska
-7.29163 <w> nnan
-3.74787 <w> no
-4.39503 <w> nope
-4.71471 <w> nopeus
-4.23854 <w> nor
-4.54026 <w> nord
-5.19786 <w> nordbanken
-4.05959 <w> norja
-4.66562 <w> norjalais
-4.94403 <w> norjalaiset
-5.15907 <w> nostettava
-4.64193 <w> nostettu
-5.20239 <w> noudatettava
-4.59629 <w> noudatta
-5.13502 <w> noussee
-4.01878 <w> nousu
-6.04184 <w> nsa
-4.7821 <w> nuorison
-5.25355 <w> nuotta
-5.27663 <w> nut
-2.73179 <w> nyt
-5.08808 <w> näyttelijöiden
-3.60752 <w> o
-4.63632 <w> odotukset
-4.86451 <w> off
-4.46055 <w> ohje
-3.82031 <w> ohjelma
-4.33858 <w> ohjelmaa
-4.10668 <w> ohjelman
-7.28217 <w> oiden
-4.69181 <w> oikeusministeri
-7.04042 <w> oissa
-6.8415 <w> oista
-5.00478 <w> ojan
-4.50527 <w> ol
-4.69131 <w> ola
-2.2733 <w> oli
-2.94983 <w> olla
-4.01199 <w> olo
-3.44399 <w> oma
-5.3644 <w> omaisuudesta
-5.36712 <w> omavarais
-4.9186 <w> omi
-4.53191 <w> omilla
-4.07917 <w> omista
-4.09396 <w> omistaja
-4.63249 <w> omistajan
-4.7737 <w> omistukseen
-4.27162 <w> omistus
-4.88013 <w> omituis
-1.64456 <w> on
-4.21965 <w> ongelmat
-4.65177 <w> ongelmiin
-4.15086 <w> ooppera
-4.53514 <w> opettaa
-3.75207 <w> opetus
-4.5351 <w> opi
-4.8206 <w> opiston
-4.19434 <w> orkesteri
-3.11124 <w> osa
-4.80447 <w> osansa
-5.29703 <w> osista
-5.96377 <w> ossa
-4.81201 <w> ossi
-4.76277 <w> otta
-4.56628 <w> otte
-3.82178 <w> otti
-4.99365 <w> ov
-5.52478 <w> ovin
-3.63353 <w> p
-3.49022 <w> pa
-4.46016 <w> pahan
-4.00993 <w> paikalle
-4.46426 <w> paikasta
-3.76027 <w> paikka
-5.20116 <w> paikkojen
-4.88354 <w> paikoissa
-5.05912 <w> paketin
-4.76886 <w> paketti
-5.07805 <w> pakosta
-3.88517 <w> pala
-5.98448 <w> palloilijoiden
-3.72089 <w> palo
-3.78676 <w> palvelu
-5.36897 <w> palveluissa
-4.34649 <w> palvelut
-4.88797 <w> pam
-5.36448 <w> panama
-4.34482 <w> pane
-4.71342 <w> pankinjohtaja
-4.91486 <w> pankissa
-4.44088 <w> pankit
-3.65968 <w> pankki
-5.06591 <w> pankkiiri
-4.76463 <w> pantu
-3.9764 <w> paperi
-3.94718 <w> par
-3.44178 <w> pari
-4.52688 <w> parkki
-4.0792 <w> parlamentti
-4.67375 <w> parta
-4.42408 <w> partio
-4.44218 <w> pat
-5.4215 <w> peleistä
-4.90897 <w> pelejä
-3.60521 <w> peli
-3.83642 <w> per
-3.73277 <w> perhe
-4.06243 <w> peri
-5.20507 <w> periaatetta
-4.89846 <w> periaatteen
-4.14119 <w> perä
-5.39529 <w> pielessä
-4.87769 <w> piikki
-5.07176 <w> piireissä
-5.50361 <w> piirustukset
-5.43532 <w> pio
-4.74975 <w> pisteellä
-4.73351 <w> pisti
-4.7032 <w> pitäen
-3.77106 <w> po
-3.93677 <w> pohja
-4.66174 <w> pohjaa
-5.30462 <w> pohjoismaiset
-3.79363 <w> poika
-4.25944 <w> poikien
-3.48664 <w> poliisi
-4.14848 <w> poliittinen
-4.19075 <w> poliittisen
-5.03168 <w> poliittisessa
-4.35363 <w> poliittista
-4.59398 <w> polku
-5.47599 <w> polun
-4.85422 <w> ponnistus
-4.30774 <w> pop
-5.65197 <w> populaatio
-5.29267 <w> populisti
-4.32836 <w> por
-4.47211 <w> poro
-5.30406 <w> porsche
-4.41835 <w> port
-4.70026 <w> porta
-5.10804 <w> portin
-4.80606 <w> pot
-4.87128 <w> potentiaali
-4.44684 <w> potilas
-4.96695 <w> potilasta
-5.46602 <w> potista
-4.80356 <w> potki
-4.69122 <w> potku
-4.97426 <w> pp
-6.38929 <w> ppi
-4.52196 <w> pr
-3.38133 <w> presidentti
-5.00459 <w> presidenttinä
-4.33579 <w> pri
-4.00155 <w> pro
-5.94248 <w> propagandisti
-4.7377 <w> pros
-4.19212 <w> prosentti
-4.93402 <w> prosessin
-5.61995 <w> proteesi
-5.05965 <w> protestoi
-5.20881 <w> provosoi
-4.72442 <w> ps
-4.67673 <w> psyko
-3.64748 <w> pu
-5.72763 <w> puhdistuksen
-4.11092 <w> puhe
-4.53341 <w> pul
-4.16033 <w> puolelle
-3.54107 <w> puoli
-4.16127 <w> pur
-4.55344 <w> purka
-5.15076 <w> putken
-4.44149 <w> puuta
-4.49904 <w> puute
-4.89982 <w> pyl
-4.00214 <w> päivi
-4.6978 <w> päivien
-3.56318 <w> päivän
-3.74378 <w> päivänä
-3.64024 <w> pääministeri
-4.62744 <w> pään
-5.67448 <w> päästöistä
-3.98471 <w> päätöksen
-3.72387 <w> päätös
-4.77725 <w> päätösten
-5.08716 <w> que
-3.75444 <w> ra
-3.87305 <w> rahoitus
-4.8951 <w> rahti
-4.15153 <w> rai
-4.89847 <w> raita
-5.07534 <w> raitiovaunu
-3.67439 <w> raja
-4.04377 <w> rajan
-4.20454 <w> raju
-4.67532 <w> rak
-4.80102 <w> rakas
-4.49118 <w> rakasta
-4.71395 <w> raken
-4.6342 <w> rakennu
-3.52474 <w> rakennus
-4.93114 <w> rakennusmestari
-4.95086 <w> rakennuttaja
-4.614 <w> rakentamis
-4.36348 <w> rakentamisen
-4.87196 <w> rakentava
-5.23256 <w> rakentuva
-4.86548 <w> rannan
-5.03438 <w> rannassa
-4.096 <w> rata
-5.26068 <w> rb
-3.57623 <w> re
-5.97208 <w> reiden
-5.47875 <w> rekisterissä
-4.90096 <w> remontin
-4.36514 <w> reuna
-5.21298 <w> reunalla
-3.70601 <w> ri
-5.47752 <w> ria
-5.07086 <w> ries
-4.12956 <w> rii
-4.63885 <w> rik
-4.56233 <w> rikollis
-4.38937 <w> rin
-4.84439 <w> ring
-4.32161 <w> rinta
-5.1046 <w> rit
-3.73317 <w> ro
-4.90073 <w> rockin
-4.88012 <w> rohkeutta
-4.34304 <w> romaani
-4.99828 <w> romahdus
-4.57805 <w> romu
-4.13318 <w> rooli
-5.30636 <w> roolihahmo
-3.79462 <w> ru
-5.02799 <w> rupea
-4.37146 <w> rus
-5.07228 <w> rusko
-4.63237 <w> ruuan
-4.97879 <w> ruuna
-4.33401 <w> ruusu
-5.32267 <w> ryhmille
-4.90199 <w> ryhmiä
-3.74012 <w> ryhmä
-4.46826 <w> ryhmässä
-4.68002 <w> räty
-4.5039 <w> rö
-3.11026 <w> s
-3.44749 <w> sa
-2.96838 <w> saa
-4.69321 <w> saama
-4.29766 <w> saapu
-5.39 <w> saareen
-4.64734 <w> saarela
-3.96939 <w> saari
-5.21201 <w> sairauksia
-4.528 <w> sal
-4.43975 <w> sali
-4.79085 <w> salibandy
-4.07484 <w> salli
-4.46587 <w> salmi
-4.30634 <w> salon
-5.37385 <w> salzburg
-3.72271 <w> sama
-3.3543 <w> samalla
-3.63295 <w> saman
-4.57999 <w> sanoja
-4.02949 <w> sarjassa
-4.60191 <w> sat
-5.47365 <w> sateessa
-5.17976 <w> schmitt
-5.5508 <w> schönberg
-2.39776 <w> se
-4.49092 <w> seikka
-2.81465 <w> seitsemän
-4.68937 <w> sektori
-5.06399 <w> sella
-5.43619 <w> selle
-4.62168 <w> seminaarissa
-2.60393 <w> sen
-6.64814 <w> sessa
-6.61064 <w> sesta
-4.24949 <w> seurakunta
-6.08643 <w> sfääri
-4.36786 <w> sh
-4.38971 <w> sha
-4.6473 <w> she
-4.84847 <w> sho
-3.49184 <w> si
-5.20736 <w> sia
-5.07297 <w> sianliha
-5.75605 <w> sidosryhmien
-4.50613 <w> sielu
-4.72495 <w> sielun
-5.10885 <w> sihteerinä
-5.0706 <w> siin
-5.07157 <w> siirron
-5.14798 <w> sila
-3.91898 <w> sille
-2.96049 <w> sillä
-4.0145 <w> sin
-4.29533 <w> sini
-4.79546 <w> sisustus
-3.83163 <w> sisä
-4.97799 <w> sisäasiain
-4.46481 <w> sit
-4.86124 <w> sitkeä
-4.92157 <w> ske
-4.81648 <w> ski
-4.74654 <w> soittaja
-4.5154 <w> sopu
-5.45474 <w> ssa
-6.97485 <w> ssi
-6.05176 <w> ssä
-4.2773 <w> st
-4.02551 <w> sta
-4.64286 <w> sti
-4.60508 <w> sto
-5.0252 <w> stre
-5.72103 <w> stä
-3.45606 <w> su
-4.36645 <w> suhde
-5.02643 <w> suhteista
-4.09638 <w> sunnuntai
-4.01815 <w> suo
-3.95898 <w> suojelu
-4.13799 <w> suomalaisia
-4.42493 <w> surma
-4.602 <w> suun
-4.75916 <w> suunnan
-4.60437 <w> suunnat
-4.85603 <w> suunnitel
-4.11765 <w> suunnittelu
-4.1791 <w> suunta
-4.48154 <w> suuntaa
-5.32228 <w> suupiel
-3.55765 <w> suur
-5.20057 <w> suurehko
-4.10256 <w> sy
-5.52325 <w> sydäninfarkti
-4.35478 <w> syn
-4.83681 <w> syntyisi
-4.59663 <w> syntymä
-4.52939 <w> syty
-4.36867 <w> syv
-4.07828 <w> syvä
-3.83187 <w> syy
-5.3658 <w> syyllisyyden
-4.18481 <w> syynä
-4.32174 <w> syys
-4.46605 <w> syyt
-4.59684 <w> syyte
-3.92373 <w> syö
-4.64469 <w> syöksy
-4.53259 <w> syöpä
-5.35787 <w> syöpään
-4.67389 <w> syöttö
-5.10415 <w> syöttöä
-3.79687 <w> sä
-3.14039 <w> t
-3.24806 <w> ta
-4.63654 <w> taan
-2.68116 <w> tai
-4.13963 <w> taiteen
-4.44659 <w> taiteilijan
-3.79435 <w> takaa
-4.96171 <w> takaus
-4.96382 <w> talletus
-4.5528 <w> taloon
-3.40813 <w> talous
-4.88073 <w> talouteen
-4.52591 <w> taloutta
-5.06289 <w> tapaamisessa
-4.65995 <w> tappion
-5.30175 <w> tarkoituksellis
-4.18227 <w> tasapaino
-4.57404 <w> tava
-4.56191 <w> tavaratalo
-3.89043 <w> te
-4.01589 <w> tee
-4.27063 <w> tehdas
-4.72558 <w> teille
-4.67954 <w> teillä
-7.07298 <w> teineen
-6.36399 <w> teissä
-4.66943 <w> teitä
-5.61646 <w> tekeviä
-4.4181 <w> tekniikan
-4.67534 <w> teknologian
-4.53298 <w> tekstiili
-4.40038 <w> tel
-4.03108 <w> tele
-5.00427 <w> telia
-5.64511 <w> tella
-7.06915 <w> tellen
-6.65373 <w> telu
-7.35396 <w> tely
-4.24941 <w> ten
-4.53787 <w> teosta
-4.32959 <w> ter
-4.39144 <w> terveydenhuoll
-7.48678 <w> tetaan
-7.40347 <w> tettu
-3.67854 <w> ti
-5.37754 <w> tia
-4.47886 <w> tiedustelu
-5.53673 <w> tieteellisiä
-5.30171 <w> tietoisuus
-5.94514 <w> tiin
-3.90444 <w> tilaa
-4.90073 <w> tilaisuutta
-4.25496 <w> tilan
-4.66768 <w> tiloihin
-4.70717 <w> tin
-7.43704 <w> tivät
-3.73996 <w> to
-3.9373 <w> toiminnan
-4.47225 <w> toiminnassa
-3.92513 <w> toimintaa
-4.80589 <w> toimintoja
-5.59895 <w> tointa
-4.39043 <w> toni
-4.47007 <w> top
-4.2524 <w> tor
-4.38669 <w> tori
-4.41627 <w> torjunta
-4.66556 <w> torni
-5.24191 <w> torpan
-5.13071 <w> torppa
-3.99078 <w> tosi
-4.61304 <w> tot
-5.56736 <w> totalit
-4.35146 <w> toteu
-5.2687 <w> toteutuma
-4.75543 <w> toteutus
-4.21934 <w> toto
-4.19356 <w> totta
-5.48303 <w> toverei
-4.29165 <w> tri
-4.51497 <w> tro
-5.7097 <w> troolari
-6.38155 <w> tta
-6.48183 <w> tti
-6.339 <w> ttu
-6.44061 <w> tty
-6.54721 <w> ttä
-3.87956 <w> tu
-3.86925 <w> tuhanteenyhdeks
-3.6381 <w> tuhat
-4.18788 <w> tuhatkuusisataa
-4.43861 <w> tuhatneljäsataa
-7.01138 <w> tuille
-4.37277 <w> tuke
-4.56496 <w> tukeva
-4.34578 <w> tukholma
-3.57241 <w> tuki
-4.67173 <w> tukia
-4.87084 <w> tukka
-7.05985 <w> tuksen
-4.65889 <w> tul
-3.76771 <w> tule
-5.77758 <w> tulehduksi
-5.21338 <w> tulehdus
-5.85035 <w> tulennielijä
-4.47094 <w> tulevaisuuteen
-3.16333 <w> tuli
-5.24999 <w> tulkittu
-5.03745 <w> tulle
-4.16442 <w> tulli
-4.03749 <w> tun
-3.92964 <w> tunne
-4.83537 <w> tuotannossa
-4.92699 <w> tuotetta
-3.98554 <w> tutkija
-4.10914 <w> ty
-7.01334 <w> tyksen
-5.20953 <w> tys
-4.53296 <w> tytön
-5.08384 <w> tyyliä
-4.11644 <w> työryhmä
-3.95708 <w> tä
-4.7676 <w> täh
-7.30239 <w> tämään
-3.73953 <w> u
-4.51035 <w> ukko
-7.03216 <w> ukset
-4.69239 <w> um
-4.06056 <w> un
-4.85176 <w> urakoi
-4.43646 <w> us
-4.4171 <w> uskoi
-5.20623 <w> utu
-3.32437 <w> uuden
-4.26678 <w> uudesta
-3.8873 <w> uudet
-5.35588 <w> uudistuksessa
-5.38261 <w> uudistuksesta
-4.23515 <w> uudistus
-4.20732 <w> uus
-3.49558 <w> uutta
-3.91177 <w> v
-3.65557 <w> va
-4.46637 <w> vaa
-3.17341 <w> vaan
-4.05159 <w> vaara
-4.32042 <w> vaaran
-4.45295 <w> vaate
-5.44729 <w> vaatimuksensa
-5.20917 <w> vaihdosta
-4.76856 <w> vaiheen
-4.93723 <w> vaihtoehdon
-4.79789 <w> vaikut
-4.1089 <w> vaikutus
-5.17844 <w> vakuutusmaksu
-3.94134 <w> val
-4.75265 <w> vallassa
-3.71566 <w> valta
-4.80337 <w> valtuuskunnan
-4.77931 <w> valvontaa
-3.88163 <w> van
-5.14383 <w> vana
-4.12534 <w> vantaan
-3.56443 <w> vapaa
-4.40831 <w> vapaaehtois
-3.59696 <w> vara
-4.7821 <w> varas
-4.82595 <w> varasta
-4.27491 <w> varasto
-4.9215 <w> varastoi
-4.95035 <w> varmuudella
-4.53857 <w> varo
-4.45029 <w> varoi
-5.20876 <w> varoilla
-4.81573 <w> varpa
-5.5242 <w> varteenotettavi
-3.15025 <w> vasta
-3.22051 <w> vastaan
-5.00662 <w> vastaanottaja
-5.18235 <w> vastaanotti
-4.28812 <w> vastaanotto
-4.57537 <w> vastakkain
-5.86047 <w> vastuita
-3.96062 <w> vastuu
-4.46705 <w> vat
-4.98872 <w> vattenfall
-4.43081 <w> vauhti
-4.49355 <w> vaunu
-5.3259 <w> vaurioitta
-5.10488 <w> vaurioitu
-3.94275 <w> ve
-4.82836 <w> ved
-4.01573 <w> veden
-4.95106 <w> vedet
-5.00315 <w> vedetty
-5.41792 <w> vedettävä
-4.94075 <w> vedon
-4.61233 <w> veh
-5.14568 <w> vehnäjauho
-4.71668 <w> veikka
-4.78541 <w> veikkaus
-4.15636 <w> veikko
-4.68288 <w> velan
-4.23932 <w> ven
-5.27553 <w> veneiden
-4.32292 <w> veri
-4.19359 <w> verta
-3.54498 <w> vesi
-4.92941 <w> vesillä
-4.62542 <w> vien
-3.98 <w> vienti
-2.81525 <w> viisi
-2.93854 <w> viisikymmentä
-3.64631 <w> viisisataa
-2.40441 <w> viiva
-4.09137 <w> ville
-4.32581 <w> vin
-6.44087 <w> vina
-4.86852 <w> viraston
-4.62361 <w> visa
-5.72765 <w> visiiri
-6.64905 <w> vissa
-4.33968 <w> vo
-2.76095 <w> voi
-5.43468 <w> voittavat
-4.50164 <w> vol
-4.57896 <w> vuoren
-3.90962 <w> vuosien
-5.1559 <w> vy
-4.31124 <w> vä
-5.19695 <w> väitä
-4.2207 <w> väl
-4.29721 <w> välinen
-5.48842 <w> välittäjien
-5.94856 <w> vät
-4.07811 <w> w
-4.22767 <w> wa
-5.41705 <w> ward
-4.96428 <w> well
-5.14289 <w> westermarck
-5.05867 <w> white
-4.28448 <w> wi
-4.77336 <w> wil
-5.19378 <w> wind
-4.72535 <w> wo
-4.97961 <w> wolf
-4.67672 <w> wood
-4.16001 <w> y
-6.80517 <w> yde
-3.96112 <w> ydin
-4.68304 <w> ydinase
-7.04521 <w> ydy
-2.9063 <w> yhdeksän
-4.25935 <w> yhdeksäntuhatta
-4.22579 <w> yhdeksäs
-3.48248 <w> yhden
-4.4734 <w> yhdestä
-4.17142 <w> yhdistyksen
-4.24718 <w> yhdistys
-3.76868 <w> yhteen
-3.64329 <w> yhteis
-4.04963 <w> yhteiskunta
-4.65079 <w> yhteistoiminta
-3.68188 <w> yhteistyö
-4.92534 <w> yhteisvastuu
-4.23529 <w> yhteisö
-4.78038 <w> yhteisövero
-5.03635 <w> yhtenäis
-3.74932 <w> yhtiö
-4.45997 <w> yhtiöt
-2.52542 <w> yksi
-3.26248 <w> yksitoista
-3.91295 <w> yleisö
-4.14921 <w> yleisöä
-2.89657 <w> yli
-5.36935 <w> yn
-4.59772 <w> yri
-4.86767 <w> yrityksiin
-4.47774 <w> yrityksille
-4.99773 <w> ys
-5.9544 <w> yty
-4.28484 <w> z
-3.98137 <w> ä
-5.02685 <w> än
-4.55314 <w> ään
-5.12496 <w> äänestystä
-4.37962 <w> ö
-5.72548 <w> öö
-2.5886e-08 <s> <w>
-0.961152 a <UNK>
-0.12027 a <w>
-1.90484 a a
-4.91521 a aan
-5.41645 a aar
-4.43255 a ah
-4.6309 a ajan
-2.92949 a al
-5.16836 a ala
-4.32502 a aminen
-4.12195 a ansa
-3.39369 a ari
-4.08113 a as
-3.94825 a aseen
-3.82552 a assa
-3.94686 a asta
-3.70414 a ava
-4.63291 a avo
-3.86755 a ba
-4.81598 a bag
-4.16534 a bal
-4.52269 a bar
-5.21797 a berg
-3.67177 a bi
-5.07427 a bis
-4.5852 a by
-5.74437 a bäck
-3.33081 a ce
-3.34247 a ch
-4.06313 a che
-3.78658 a chi
-4.34014 a ci
-5.63992 a city
-3.73067 a co
-5.35151 a com
-4.88943 a cor
-5.27001 a cr
-3.11574 a da
-3.85116 a dan
-3.38473 a de
-3.7894 a den
-3.92652 a der
-3.44027 a di
-4.20076 a dia
-3.42522 a do
-4.15253 a dor
-5.48688 a down
-4.24319 a du
-5.53968 a dun
-3.49005 a dy
-3.50994 a e
-5.34339 a ed
-5.02252 a ei
-5.13629 a eli
-5.50234 a ella
-4.53225 a elli
-3.68215 a en
-5.54003 a ep
-4.29463 a eri
-5.2138 a erin
-3.18044 a ero
-4.54 a es
-5.46975 a esi
-5.40492 a essa
-5.1018 a est
-4.45052 a et
-4.28393 a eu
-4.59991 a fe
-3.73808 a ff
-4.29937 a fi
-5.53479 a filmi
-4.48928 a fl
-4.6937 a fla
-5.63771 a foni
-3.11799 a ga
-4.03173 a gan
-3.68861 a gen
-4.3133 a ger
-3.66685 a go
-3.65882 a ha
-3.63237 a haa
-5.21999 a hahmo
-4.65765 a ham
-3.45323 a han
-4.12787 a har
-5.5425 a harja
-5.53236 a harju
-3.3297 a hdi
-4.5017 a he
-5.44879 a hel
-4.13788 a hi
-3.12505 a hl
-5.52449 a hoi
-5.46004 a hoitaja
-5.02554 a hor
-4.25265 a hr
-2.84061 a hta
-4.31215 a hu
-5.40677 a huolto
-3.69036 a ia
-3.35438 a ida
-4.11312 a iden
-3.33204 a ie
-4.26004 a ien
-4.43517 a iha
-4.60587 a ihin
-4.66033 a ikka
-4.38901 a ilevat
-3.35897 a ili
-5.04973 a ilija
-4.15382 a illa
-4.34372 a ille
-4.31936 a ilo
-5.74212 a ilon
-4.64368 a ilta
-4.35116 a im
-2.9677 a in
-2.99902 a inen
-3.07534 a is
-3.94326 a isella
-5.35288 a isemmin
-4.89847 a isempi
-3.16012 a isen
-4.0837 a isena
-3.84793 a isesti
-3.47714 a iset
-3.10886 a isi
-3.50483 a isia
-3.83805 a isiin
-3.93194 a isiksi
-3.7513 a isina
-3.86351 a isista
-3.80622 a isivat
-5.46861 a ismi
-4.09399 a issa
-3.41426 a ista
-3.31643 a isten
-5.19915 a istunut
-5.10657 a istuu
-3.71744 a isuuden
-3.46147 a isuus
-5.0511 a isuutensa
-3.84818 a isuutta
-3.84173 a it
-4.63745 a itten
-3.04161 a j
-1.83698 a ja
-5.73435 a jakelu
-5.40673 a jen
-4.32286 a jev
-4.21987 a jilla
-4.41123 a joille
-3.84036 a joki
-5.62172 a juuri
-4.79406 a järvellä
-4.05745 a järvi
-2.97175 a ka
-2.84656 a kaan
-5.12131 a kadulla
-3.66453 a kaksitoista
-5.13506 a kama
-3.29012 a kan
-4.82232 a kangas
-4.85473 a kanka
-5.39554 a kankaan
-5.17498 a kanta
-3.46749 a kat
-5.00857 a katu
-5.45597 a kaudella
-3.98602 a kaupassa
-5.20044 a kauppoihin
-5.35701 a kaupungissa
-3.64222 a ke
-5.41145 a kelin
-3.25976 a ker
-4.36764 a kes
-5.08805 a keskus
-4.87317 a kielto
-4.53052 a kissa
-3.35454 a kk
-3.07326 a kka
-4.62896 a kkaan
-3.65789 a kki
-3.51133 a kko
-3.21898 a kku
-3.18038 a ko
-5.44964 a koh
-5.36469 a koiran
-4.38349 a koista
-4.80979 a kolle
-3.79827 a kolmetoista
-5.0651 a koo
-4.20141 a kop
-4.97893 a kos
-4.22562 a kosken
-4.10214 a koski
-4.23708 a kot
-5.38755 a koti
-5.24972 a koulu
-5.58668 a koulun
-3.14431 a kseen
-4.81156 a ksella
-3.29556 a ksen
-5.00243 a kset
-3.08942 a ku
-5.47851 a kulttuuri
-5.3027 a kulut
-5.44144 a kunta
-4.30194 a kuusikymmentä
-3.78097 a kuusitoista
-5.22899 a kyky
-5.52246 a kär
-5.60263 a laati
-3.16144 a lain
-3.0199 a laisen
-3.19604 a laisia
-3.85712 a laisille
-3.12659 a laista
-4.38864 a laiva
-5.35747 a lakko
-5.28809 a lauta
-4.4509 a lee
-5.50623 a lehti
-4.33892 a lenin
-4.19804 a ler
-4.98741 a levä
-4.33317 a ley
-5.28417 a liike
-4.95108 a liiton
-4.80459 a liitto
-4.57136 a lim
-5.27001 a linjat
-3.86597 a lk
-3.81809 a llaan
-5.09976 a lliseksi
-5.05042 a llisella
-5.30947 a llisessa
-3.89693 a llisesti
-5.61373 a llisin
-4.52622 a long
-3.30762 a lu
-5.14967 a luku
-3.5771 a ly
-5.64705 a lysti
-4.66181 a lä
-3.14656 a ma
-3.71221 a maa
-2.66915 a maan
-4.80207 a mainen
-5.10668 a maista
-5.41937 a maksa
-3.22789 a malla
-3.27027 a man
-4.75004 a mart
-3.28983 a massa
-3.9123 a masta
-4.78632 a matonta
-3.57329 a matta
-5.36846 a mattomaksi
-4.69205 a mattoman
-4.1063 a mba
-3.46827 a me
-3.34831 a mer
-3.13913 a meri
-4.01551 a met
-3.1061 a mi
-3.78013 a mia
-3.90071 a mic
-4.36745 a mie
-4.87712 a miel
-3.76593 a mien
-4.68639 a mies
-4.05226 a miin
-4.79659 a miksi
-5.12943 a mini
-3.40037 a mis
-4.3874 a miselle
-3.12352 a misen
-3.27842 a misesta
-4.3193 a miset
-4.52286 a missa
-2.9844 a mista
-3.52814 a mmaksi
-4.07987 a mmalla
-3.28563 a mman
-3.20562 a mmat
-3.05003 a mo
-3.2553 a mpaa
-3.26784 a mpi
-3.34136 a mpia
-3.53443 a mur
-5.36184 a mä
-4.71486 a mäen
-3.85841 a mäki
-5.19498 a määrä
-5.12671 a mö
-4.66771 a nainen
-5.07343 a naisen
-2.99419 a ne
-3.95279 a nee
-5.04699 a neen
-5.00991 a neet
-3.81881 a neista
-4.97604 a nie
-5.41302 a niemelle
-4.66602 a nimi
-5.31824 a niska
-5.31698 a nope
-3.47832 a nor
-4.47817 a nut
-5.43754 a nyt
-3.08509 a o
-5.61666 a ohje
-5.09963 a oiden
-5.02662 a ojan
-4.54606 a ol
-5.14159 a olla
-5.19769 a olo
-3.69749 a on
-5.22762 a opi
-4.37155 a ossa
-3.34777 a pa
-5.40776 a paikka
-5.3385 a paketti
-4.83191 a pala
-5.20673 a palo
-5.74946 a pankissa
-4.83857 a pankki
-5.30026 a paperi
-4.088 a par
-5.08669 a pari
-5.20092 a parta
-4.86767 a pat
-4.0704 a peli
-4.52683 a per
-3.97948 a peri
-4.44649 a pio
-3.56428 a po
-5.29881 a pohja
-5.45597 a polku
-4.60478 a pop
-5.61 a por
-5.16098 a port
-4.63126 a pot
-5.63771 a potilas
-4.13378 a pp
-3.74307 a ppi
-5.45655 a pr
-4.02098 a pri
-4.46021 a pro
-5.53758 a prosentti
-4.20146 a ps
-3.91053 a pul
-3.43224 a pur
-5.41804 a purka
-4.68723 a que
-4.50081 a rai
-5.3396 a raja
-4.66795 a rak
